digraph Tree {
node [shape=box, fontname="helvetica"] ;
edge [fontname="helvetica"] ;
0 [label="x[5] <= 0.5\ngini = 0.875\nsamples = 10140\nvalue = [1485, 1127, 300, 1035, 1976, 777, 401, 408, 1724\n320, 587]"] ;
1 [label="x[2] <= 0.5\ngini = 0.875\nsamples = 7441\nvalue = [1086, 914, 278, 920, 590, 716, 292, 370, 1629, 203\n443]"] ;
0 -> 1 [labeldistance=2.5, labelangle=45, headlabel="True"] ;
2 [label="x[0] <= 0.5\ngini = 0.849\nsamples = 5786\nvalue = [898, 802, 40, 124, 557, 617, 257, 361, 1598, 167\n365]"] ;
1 -> 2 ;
3 [label="x[15] <= 0.5\ngini = 0.824\nsamples = 4608\nvalue = [625, 704, 37, 114, 528, 92, 226, 351, 1508, 134\n289]"] ;
2 -> 3 ;
4 [label="x[1] <= 0.5\ngini = 0.82\nsamples = 4386\nvalue = [610, 511, 37, 114, 525, 90, 226, 351, 1504, 131\n287]"] ;
3 -> 4 ;
5 [label="x[10] <= 0.5\ngini = 0.79\nsamples = 3823\nvalue = [506, 470, 35, 98, 494, 71, 19, 346, 1465, 82, 237]"] ;
4 -> 5 ;
6 [label="x[8] <= 0.5\ngini = 0.772\nsamples = 3486\nvalue = [467, 438, 32, 90, 300, 64, 18, 346, 1446, 74, 211]"] ;
5 -> 6 ;
7 [label="x[6] <= 0.5\ngini = 0.748\nsamples = 3163\nvalue = [427, 358, 28, 88, 178, 60, 15, 338, 1418, 56, 197]"] ;
6 -> 7 ;
8 [label="x[14] <= 0.5\ngini = 0.723\nsamples = 2914\nvalue = [382, 305, 17, 42, 162, 56, 12, 327, 1395, 42, 174]"] ;
7 -> 8 ;
9 [label="x[9] <= 0.5\ngini = 0.713\nsamples = 2839\nvalue = [379, 269, 17, 41, 132, 55, 12, 327, 1391, 42, 174]"] ;
8 -> 9 ;
10 [label="x[11] <= 0.5\ngini = 0.698\nsamples = 2743\nvalue = [366, 262, 15, 38, 99, 53, 6, 327, 1387, 32, 158]"] ;
9 -> 10 ;
11 [label="x[20] <= 0.5\ngini = 0.692\nsamples = 2706\nvalue = [364, 231, 15, 37, 99, 53, 6, 327, 1387, 31, 156]"] ;
10 -> 11 ;
12 [label="x[7] <= 0.5\ngini = 0.682\nsamples = 2647\nvalue = [355, 204, 15, 36, 99, 52, 6, 326, 1386, 31, 137]"] ;
11 -> 12 ;
13 [label="x[17] <= 0.5\ngini = 0.718\nsamples = 2128\nvalue = [296, 161, 14, 34, 91, 48, 6, 288, 1025, 30, 135]"] ;
12 -> 13 ;
14 [label="x[4] <= 0.5\ngini = 0.705\nsamples = 1932\nvalue = [271, 141, 14, 33, 76, 46, 6, 286, 953, 26, 80]"] ;
13 -> 14 ;
15 [label="gini = 0.724\nsamples = 1456\nvalue = [184, 114, 7, 21, 72, 36, 3, 265, 676, 23, 55]"] ;
14 -> 15 ;
16 [label="gini = 0.619\nsamples = 476\nvalue = [87, 27, 7, 12, 4, 10, 3, 21, 277, 3, 25]"] ;
14 -> 16 ;
17 [label="x[4] <= 0.5\ngini = 0.753\nsamples = 196\nvalue = [25, 20, 0, 1, 15, 2, 0, 2, 72, 4, 55]"] ;
13 -> 17 ;
18 [label="gini = 0.753\nsamples = 179\nvalue = [24, 16, 0, 1, 14, 1, 0, 2, 62, 4, 55]"] ;
17 -> 18 ;
19 [label="gini = 0.588\nsamples = 17\nvalue = [1, 4, 0, 0, 1, 1, 0, 0, 10, 0, 0]"] ;
17 -> 19 ;
20 [label="x[21] <= 0.5\ngini = 0.491\nsamples = 519\nvalue = [59, 43, 1, 2, 8, 4, 0, 38, 361, 1, 2]"] ;
12 -> 20 ;
21 [label="x[3] <= 0.5\ngini = 0.486\nsamples = 516\nvalue = [59, 40, 1, 2, 8, 4, 0, 38, 361, 1, 2]"] ;
20 -> 21 ;
22 [label="gini = 0.583\nsamples = 180\nvalue = [24, 22, 0, 2, 6, 4, 0, 9, 111, 1, 1]"] ;
21 -> 22 ;
23 [label="gini = 0.425\nsamples = 336\nvalue = [35, 18, 1, 0, 2, 0, 0, 29, 250, 0, 1]"] ;
21 -> 23 ;
24 [label="gini = 0.0\nsamples = 3\nvalue = [0, 3, 0, 0, 0, 0, 0, 0, 0, 0, 0]"] ;
20 -> 24 ;
25 [label="x[7] <= 0.5\ngini = 0.662\nsamples = 59\nvalue = [9, 27, 0, 1, 0, 1, 0, 1, 1, 0, 19]"] ;
11 -> 25 ;
26 [label="x[3] <= 0.5\ngini = 0.668\nsamples = 47\nvalue = [9, 17, 0, 1, 0, 1, 0, 0, 0, 0, 19]"] ;
25 -> 26 ;
27 [label="x[21] <= 0.5\ngini = 0.653\nsamples = 37\nvalue = [7, 10, 0, 1, 0, 1, 0, 0, 0, 0, 18]"] ;
26 -> 27 ;
28 [label="gini = 0.648\nsamples = 36\nvalue = [7, 9, 0, 1, 0, 1, 0, 0, 0, 0, 18]"] ;
27 -> 28 ;
29 [label="gini = 0.0\nsamples = 1\nvalue = [0, 1, 0, 0, 0, 0, 0, 0, 0, 0, 0]"] ;
27 -> 29 ;
30 [label="x[17] <= 0.5\ngini = 0.46\nsamples = 10\nvalue = [2, 7, 0, 0, 0, 0, 0, 0, 0, 0, 1]"] ;
26 -> 30 ;
31 [label="gini = 0.346\nsamples = 9\nvalue = [2, 7, 0, 0, 0, 0, 0, 0, 0, 0, 0]"] ;
30 -> 31 ;
32 [label="gini = 0.0\nsamples = 1\nvalue = [0, 0, 0, 0, 0, 0, 0, 0, 0, 0, 1]"] ;
30 -> 32 ;
33 [label="x[3] <= 0.5\ngini = 0.292\nsamples = 12\nvalue = [0, 10, 0, 0, 0, 0, 0, 1, 1, 0, 0]"] ;
25 -> 33 ;
34 [label="gini = 0.0\nsamples = 4\nvalue = [0, 4, 0, 0, 0, 0, 0, 0, 0, 0, 0]"] ;
33 -> 34 ;
35 [label="x[18] <= 0.5\ngini = 0.406\nsamples = 8\nvalue = [0, 6, 0, 0, 0, 0, 0, 1, 1, 0, 0]"] ;
33 -> 35 ;
36 [label="gini = 0.449\nsamples = 7\nvalue = [0, 5, 0, 0, 0, 0, 0, 1, 1, 0, 0]"] ;
35 -> 36 ;
37 [label="gini = 0.0\nsamples = 1\nvalue = [0, 1, 0, 0, 0, 0, 0, 0, 0, 0, 0]"] ;
35 -> 37 ;
38 [label="x[7] <= 0.5\ngini = 0.291\nsamples = 37\nvalue = [2, 31, 0, 1, 0, 0, 0, 0, 0, 1, 2]"] ;
10 -> 38 ;
39 [label="x[4] <= 0.5\ngini = 0.321\nsamples = 33\nvalue = [2, 27, 0, 1, 0, 0, 0, 0, 0, 1, 2]"] ;
38 -> 39 ;
40 [label="x[21] <= 0.5\ngini = 0.316\nsamples = 28\nvalue = [1, 23, 0, 1, 0, 0, 0, 0, 0, 1, 2]"] ;
39 -> 40 ;
41 [label="x[3] <= 0.5\ngini = 0.349\nsamples = 25\nvalue = [1, 20, 0, 1, 0, 0, 0, 0, 0, 1, 2]"] ;
40 -> 41 ;
42 [label="gini = 0.374\nsamples = 23\nvalue = [1, 18, 0, 1, 0, 0, 0, 0, 0, 1, 2]"] ;
41 -> 42 ;
43 [label="gini = 0.0\nsamples = 2\nvalue = [0, 2, 0, 0, 0, 0, 0, 0, 0, 0, 0]"] ;
41 -> 43 ;
44 [label="gini = 0.0\nsamples = 3\nvalue = [0, 3, 0, 0, 0, 0, 0, 0, 0, 0, 0]"] ;
40 -> 44 ;
45 [label="x[3] <= 0.5\ngini = 0.32\nsamples = 5\nvalue = [1, 4, 0, 0, 0, 0, 0, 0, 0, 0, 0]"] ;
39 -> 45 ;
46 [label="gini = 0.0\nsamples = 2\nvalue = [0, 2, 0, 0, 0, 0, 0, 0, 0, 0, 0]"] ;
45 -> 46 ;
47 [label="x[17] <= 0.5\ngini = 0.444\nsamples = 3\nvalue = [1, 2, 0, 0, 0, 0, 0, 0, 0, 0, 0]"] ;
45 -> 47 ;
48 [label="gini = 0.5\nsamples = 2\nvalue = [1, 1, 0, 0, 0, 0, 0, 0, 0, 0, 0]"] ;
47 -> 48 ;
49 [label="gini = 0.0\nsamples = 1\nvalue = [0, 1, 0, 0, 0, 0, 0, 0, 0, 0, 0]"] ;
47 -> 49 ;
50 [label="gini = 0.0\nsamples = 4\nvalue = [0, 4, 0, 0, 0, 0, 0, 0, 0, 0, 0]"] ;
38 -> 50 ;
51 [label="x[22] <= 0.5\ngini = 0.812\nsamples = 96\nvalue = [13, 7, 2, 3, 33, 2, 6, 0, 4, 10, 16]"] ;
9 -> 51 ;
52 [label="x[17] <= 0.5\ngini = 0.811\nsamples = 94\nvalue = [13, 7, 2, 3, 33, 2, 6, 0, 4, 10, 14]"] ;
51 -> 52 ;
53 [label="x[18] <= 0.5\ngini = 0.803\nsamples = 91\nvalue = [13, 7, 1, 3, 33, 2, 6, 0, 3, 10, 13]"] ;
52 -> 53 ;
54 [label="x[13] <= 0.5\ngini = 0.792\nsamples = 87\nvalue = [12, 6, 1, 3, 33, 2, 6, 0, 2, 9, 13]"] ;
53 -> 54 ;
55 [label="x[4] <= 0.5\ngini = 0.789\nsamples = 86\nvalue = [12, 6, 1, 3, 33, 2, 5, 0, 2, 9, 13]"] ;
54 -> 55 ;
56 [label="gini = 0.767\nsamples = 74\nvalue = [9, 6, 1, 2, 31, 2, 4, 0, 1, 7, 11]"] ;
55 -> 56 ;
57 [label="gini = 0.833\nsamples = 12\nvalue = [3, 0, 0, 1, 2, 0, 1, 0, 1, 2, 2]"] ;
55 -> 57 ;
58 [label="gini = 0.0\nsamples = 1\nvalue = [0, 0, 0, 0, 0, 0, 1, 0, 0, 0, 0]"] ;
54 -> 58 ;
59 [label="x[3] <= 0.5\ngini = 0.75\nsamples = 4\nvalue = [1, 1, 0, 0, 0, 0, 0, 0, 1, 1, 0]"] ;
53 -> 59 ;
60 [label="gini = 0.0\nsamples = 1\nvalue = [0, 0, 0, 0, 0, 0, 0, 0, 0, 1, 0]"] ;
59 -> 60 ;
61 [label="x[4] <= 0.5\ngini = 0.667\nsamples = 3\nvalue = [1, 1, 0, 0, 0, 0, 0, 0, 1, 0, 0]"] ;
59 -> 61 ;
62 [label="gini = 0.5\nsamples = 2\nvalue = [1, 0, 0, 0, 0, 0, 0, 0, 1, 0, 0]"] ;
61 -> 62 ;
63 [label="gini = 0.0\nsamples = 1\nvalue = [0, 1, 0, 0, 0, 0, 0, 0, 0, 0, 0]"] ;
61 -> 63 ;
64 [label="x[3] <= 0.5\ngini = 0.667\nsamples = 3\nvalue = [0, 0, 1, 0, 0, 0, 0, 0, 1, 0, 1]"] ;
52 -> 64 ;
65 [label="gini = 0.0\nsamples = 1\nvalue = [0, 0, 1, 0, 0, 0, 0, 0, 0, 0, 0]"] ;
64 -> 65 ;
66 [label="gini = 0.5\nsamples = 2\nvalue = [0, 0, 0, 0, 0, 0, 0, 0, 1, 0, 1]"] ;
64 -> 66 ;
67 [label="gini = 0.0\nsamples = 2\nvalue = [0, 0, 0, 0, 0, 0, 0, 0, 0, 0, 2]"] ;
51 -> 67 ;
68 [label="x[21] <= 0.5\ngini = 0.605\nsamples = 75\nvalue = [3, 36, 0, 1, 30, 1, 0, 0, 4, 0, 0]"] ;
8 -> 68 ;
69 [label="x[3] <= 0.5\ngini = 0.615\nsamples = 70\nvalue = [3, 31, 0, 1, 30, 1, 0, 0, 4, 0, 0]"] ;
68 -> 69 ;
70 [label="x[16] <= 0.5\ngini = 0.569\nsamples = 48\nvalue = [2, 19, 0, 1, 25, 1, 0, 0, 0, 0, 0]"] ;
69 -> 70 ;
71 [label="x[7] <= 0.5\ngini = 0.583\nsamples = 44\nvalue = [2, 19, 0, 1, 21, 1, 0, 0, 0, 0, 0]"] ;
70 -> 71 ;
72 [label="x[23] <= 0.5\ngini = 0.562\nsamples = 40\nvalue = [1, 16, 0, 1, 21, 1, 0, 0, 0, 0, 0]"] ;
71 -> 72 ;
73 [label="x[11] <= 0.5\ngini = 0.557\nsamples = 38\nvalue = [1, 14, 0, 1, 21, 1, 0, 0, 0, 0, 0]"] ;
72 -> 73 ;
74 [label="gini = 0.552\nsamples = 37\nvalue = [1, 13, 0, 1, 21, 1, 0, 0, 0, 0, 0]"] ;
73 -> 74 ;
75 [label="gini = 0.0\nsamples = 1\nvalue = [0, 1, 0, 0, 0, 0, 0, 0, 0, 0, 0]"] ;
73 -> 75 ;
76 [label="gini = 0.0\nsamples = 2\nvalue = [0, 2, 0, 0, 0, 0, 0, 0, 0, 0, 0]"] ;
72 -> 76 ;
77 [label="x[17] <= 0.5\ngini = 0.375\nsamples = 4\nvalue = [1, 3, 0, 0, 0, 0, 0, 0, 0, 0, 0]"] ;
71 -> 77 ;
78 [label="gini = 0.444\nsamples = 3\nvalue = [1, 2, 0, 0, 0, 0, 0, 0, 0, 0, 0]"] ;
77 -> 78 ;
79 [label="gini = 0.0\nsamples = 1\nvalue = [0, 1, 0, 0, 0, 0, 0, 0, 0, 0, 0]"] ;
77 -> 79 ;
80 [label="gini = 0.0\nsamples = 4\nvalue = [0, 0, 0, 0, 4, 0, 0, 0, 0, 0, 0]"] ;
70 -> 80 ;
81 [label="x[17] <= 0.5\ngini = 0.616\nsamples = 22\nvalue = [1, 12, 0, 0, 5, 0, 0, 0, 4, 0, 0]"] ;
69 -> 81 ;
82 [label="x[16] <= 0.5\ngini = 0.554\nsamples = 17\nvalue = [0, 10, 0, 0, 5, 0, 0, 0, 2, 0, 0]"] ;
81 -> 82 ;
83 [label="x[4] <= 0.5\ngini = 0.531\nsamples = 16\nvalue = [0, 10, 0, 0, 4, 0, 0, 0, 2, 0, 0]"] ;
82 -> 83 ;
84 [label="x[22] <= 0.5\ngini = 0.5\nsamples = 14\nvalue = [0, 9, 0, 0, 4, 0, 0, 0, 1, 0, 0]"] ;
83 -> 84 ;
85 [label="gini = 0.521\nsamples = 13\nvalue = [0, 8, 0, 0, 4, 0, 0, 0, 1, 0, 0]"] ;
84 -> 85 ;
86 [label="gini = 0.0\nsamples = 1\nvalue = [0, 1, 0, 0, 0, 0, 0, 0, 0, 0, 0]"] ;
84 -> 86 ;
87 [label="x[7] <= 0.5\ngini = 0.5\nsamples = 2\nvalue = [0, 1, 0, 0, 0, 0, 0, 0, 1, 0, 0]"] ;
83 -> 87 ;
88 [label="gini = 0.0\nsamples = 1\nvalue = [0, 0, 0, 0, 0, 0, 0, 0, 1, 0, 0]"] ;
87 -> 88 ;
89 [label="gini = 0.0\nsamples = 1\nvalue = [0, 1, 0, 0, 0, 0, 0, 0, 0, 0, 0]"] ;
87 -> 89 ;
90 [label="gini = 0.0\nsamples = 1\nvalue = [0, 0, 0, 0, 1, 0, 0, 0, 0, 0, 0]"] ;
82 -> 90 ;
91 [label="x[7] <= 0.5\ngini = 0.64\nsamples = 5\nvalue = [1, 2, 0, 0, 0, 0, 0, 0, 2, 0, 0]"] ;
81 -> 91 ;
92 [label="x[16] <= 0.5\ngini = 0.625\nsamples = 4\nvalue = [1, 2, 0, 0, 0, 0, 0, 0, 1, 0, 0]"] ;
91 -> 92 ;
93 [label="gini = 0.667\nsamples = 3\nvalue = [1, 1, 0, 0, 0, 0, 0, 0, 1, 0, 0]"] ;
92 -> 93 ;
94 [label="gini = 0.0\nsamples = 1\nvalue = [0, 1, 0, 0, 0, 0, 0, 0, 0, 0, 0]"] ;
92 -> 94 ;
95 [label="gini = 0.0\nsamples = 1\nvalue = [0, 0, 0, 0, 0, 0, 0, 0, 1, 0, 0]"] ;
91 -> 95 ;
96 [label="gini = 0.0\nsamples = 5\nvalue = [0, 5, 0, 0, 0, 0, 0, 0, 0, 0, 0]"] ;
68 -> 96 ;
97 [label="x[3] <= 0.5\ngini = 0.859\nsamples = 249\nvalue = [45, 53, 11, 46, 16, 4, 3, 11, 23, 14, 23]"] ;
7 -> 97 ;
98 [label="x[20] <= 0.5\ngini = 0.841\nsamples = 172\nvalue = [30, 35, 9, 43, 8, 3, 3, 1, 9, 13, 18]"] ;
97 -> 98 ;
99 [label="x[14] <= 0.5\ngini = 0.839\nsamples = 170\nvalue = [30, 35, 9, 43, 8, 3, 3, 1, 9, 13, 16]"] ;
98 -> 99 ;
100 [label="x[7] <= 0.5\ngini = 0.839\nsamples = 166\nvalue = [30, 32, 8, 43, 8, 3, 3, 1, 9, 13, 16]"] ;
99 -> 100 ;
101 [label="x[18] <= 0.5\ngini = 0.835\nsamples = 154\nvalue = [26, 30, 8, 42, 6, 3, 3, 1, 6, 13, 16]"] ;
100 -> 101 ;
102 [label="x[9] <= 0.5\ngini = 0.835\nsamples = 152\nvalue = [26, 28, 8, 42, 6, 3, 3, 1, 6, 13, 16]"] ;
101 -> 102 ;
103 [label="x[19] <= 0.5\ngini = 0.829\nsamples = 144\nvalue = [24, 28, 8, 41, 4, 2, 3, 1, 6, 11, 16]"] ;
102 -> 103 ;
104 [label="gini = 0.827\nsamples = 142\nvalue = [23, 28, 8, 41, 3, 2, 3, 1, 6, 11, 16]"] ;
103 -> 104 ;
105 [label="gini = 0.5\nsamples = 2\nvalue = [1, 0, 0, 0, 1, 0, 0, 0, 0, 0, 0]"] ;
103 -> 105 ;
106 [label="gini = 0.781\nsamples = 8\nvalue = [2, 0, 0, 1, 2, 1, 0, 0, 0, 2, 0]"] ;
102 -> 106 ;
107 [label="gini = 0.0\nsamples = 2\nvalue = [0, 2, 0, 0, 0, 0, 0, 0, 0, 0, 0]"] ;
101 -> 107 ;
108 [label="x[17] <= 0.5\ngini = 0.764\nsamples = 12\nvalue = [4, 2, 0, 1, 2, 0, 0, 0, 3, 0, 0]"] ;
100 -> 108 ;
109 [label="x[18] <= 0.5\ngini = 0.744\nsamples = 11\nvalue = [4, 1, 0, 1, 2, 0, 0, 0, 3, 0, 0]"] ;
108 -> 109 ;
110 [label="gini = 0.76\nsamples = 10\nvalue = [3, 1, 0, 1, 2, 0, 0, 0, 3, 0, 0]"] ;
109 -> 110 ;
111 [label="gini = 0.0\nsamples = 1\nvalue = [1, 0, 0, 0, 0, 0, 0, 0, 0, 0, 0]"] ;
109 -> 111 ;
112 [label="gini = 0.0\nsamples = 1\nvalue = [0, 1, 0, 0, 0, 0, 0, 0, 0, 0, 0]"] ;
108 -> 112 ;
113 [label="x[4] <= 0.5\ngini = 0.375\nsamples = 4\nvalue = [0, 3, 1, 0, 0, 0, 0, 0, 0, 0, 0]"] ;
99 -> 113 ;
114 [label="gini = 0.0\nsamples = 3\nvalue = [0, 3, 0, 0, 0, 0, 0, 0, 0, 0, 0]"] ;
113 -> 114 ;
115 [label="gini = 0.0\nsamples = 1\nvalue = [0, 0, 1, 0, 0, 0, 0, 0, 0, 0, 0]"] ;
113 -> 115 ;
116 [label="gini = 0.0\nsamples = 2\nvalue = [0, 0, 0, 0, 0, 0, 0, 0, 0, 0, 2]"] ;
98 -> 116 ;
117 [label="x[7] <= 0.5\ngini = 0.84\nsamples = 77\nvalue = [15, 18, 2, 3, 8, 1, 0, 10, 14, 1, 5]"] ;
97 -> 117 ;
118 [label="x[14] <= 0.5\ngini = 0.854\nsamples = 57\nvalue = [13, 7, 2, 3, 8, 1, 0, 9, 9, 1, 4]"] ;
117 -> 118 ;
119 [label="x[17] <= 0.5\ngini = 0.848\nsamples = 54\nvalue = [13, 7, 2, 2, 6, 1, 0, 9, 9, 1, 4]"] ;
118 -> 119 ;
120 [label="x[20] <= 0.5\ngini = 0.842\nsamples = 52\nvalue = [13, 6, 2, 2, 6, 0, 0, 9, 9, 1, 4]"] ;
119 -> 120 ;
121 [label="x[9] <= 0.5\ngini = 0.838\nsamples = 51\nvalue = [13, 6, 2, 2, 6, 0, 0, 9, 9, 1, 3]"] ;
120 -> 121 ;
122 [label="x[22] <= 0.5\ngini = 0.835\nsamples = 47\nvalue = [12, 5, 2, 2, 4, 0, 0, 9, 9, 1, 3]"] ;
121 -> 122 ;
123 [label="gini = 0.838\nsamples = 46\nvalue = [11, 5, 2, 2, 4, 0, 0, 9, 9, 1, 3]"] ;
122 -> 123 ;
124 [label="gini = 0.0\nsamples = 1\nvalue = [1, 0, 0, 0, 0, 0, 0, 0, 0, 0, 0]"] ;
122 -> 124 ;
125 [label="x[4] <= 0.5\ngini = 0.625\nsamples = 4\nvalue = [1, 1, 0, 0, 2, 0, 0, 0, 0, 0, 0]"] ;
121 -> 125 ;
126 [label="gini = 0.444\nsamples = 3\nvalue = [0, 1, 0, 0, 2, 0, 0, 0, 0, 0, 0]"] ;
125 -> 126 ;
127 [label="gini = 0.0\nsamples = 1\nvalue = [1, 0, 0, 0, 0, 0, 0, 0, 0, 0, 0]"] ;
125 -> 127 ;
128 [label="gini = 0.0\nsamples = 1\nvalue = [0, 0, 0, 0, 0, 0, 0, 0, 0, 0, 1]"] ;
120 -> 128 ;
129 [label="gini = 0.5\nsamples = 2\nvalue = [0, 1, 0, 0, 0, 1, 0, 0, 0, 0, 0]"] ;
119 -> 129 ;
130 [label="gini = 0.444\nsamples = 3\nvalue = [0, 0, 0, 1, 2, 0, 0, 0, 0, 0, 0]"] ;
118 -> 130 ;
131 [label="x[18] <= 0.5\ngini = 0.62\nsamples = 20\nvalue = [2, 11, 0, 0, 0, 0, 0, 1, 5, 0, 1]"] ;
117 -> 131 ;
132 [label="x[4] <= 0.5\ngini = 0.587\nsamples = 19\nvalue = [1, 11, 0, 0, 0, 0, 0, 1, 5, 0, 1]"] ;
131 -> 132 ;
133 [label="x[21] <= 0.5\ngini = 0.641\nsamples = 16\nvalue = [1, 8, 0, 0, 0, 0, 0, 1, 5, 0, 1]"] ;
132 -> 133 ;
134 [label="x[17] <= 0.5\ngini = 0.658\nsamples = 15\nvalue = [1, 7, 0, 0, 0, 0, 0, 1, 5, 0, 1]"] ;
133 -> 134 ;
135 [label="x[13] <= 0.5\ngini = 0.673\nsamples = 14\nvalue = [1, 6, 0, 0, 0, 0, 0, 1, 5, 0, 1]"] ;
134 -> 135 ;
136 [label="gini = 0.686\nsamples = 13\nvalue = [1, 5, 0, 0, 0, 0, 0, 1, 5, 0, 1]"] ;
135 -> 136 ;
137 [label="gini = 0.0\nsamples = 1\nvalue = [0, 1, 0, 0, 0, 0, 0, 0, 0, 0, 0]"] ;
135 -> 137 ;
138 [label="gini = 0.0\nsamples = 1\nvalue = [0, 1, 0, 0, 0, 0, 0, 0, 0, 0, 0]"] ;
134 -> 138 ;
139 [label="gini = 0.0\nsamples = 1\nvalue = [0, 1, 0, 0, 0, 0, 0, 0, 0, 0, 0]"] ;
133 -> 139 ;
140 [label="gini = 0.0\nsamples = 3\nvalue = [0, 3, 0, 0, 0, 0, 0, 0, 0, 0, 0]"] ;
132 -> 140 ;
141 [label="gini = 0.0\nsamples = 1\nvalue = [1, 0, 0, 0, 0, 0, 0, 0, 0, 0, 0]"] ;
131 -> 141 ;
142 [label="x[7] <= 0.5\ngini = 0.767\nsamples = 323\nvalue = [40, 80, 4, 2, 122, 4, 3, 8, 28, 18, 14]"] ;
6 -> 142 ;
143 [label="x[11] <= 0.5\ngini = 0.739\nsamples = 277\nvalue = [36, 60, 4, 2, 120, 4, 3, 6, 12, 18, 12]"] ;
142 -> 143 ;
144 [label="x[3] <= 0.5\ngini = 0.731\nsamples = 263\nvalue = [36, 47, 4, 2, 120, 4, 3, 6, 12, 18, 11]"] ;
143 -> 144 ;
145 [label="x[6] <= 0.5\ngini = 0.691\nsamples = 186\nvalue = [29, 20, 3, 2, 95, 4, 3, 1, 3, 17, 9]"] ;
144 -> 145 ;
146 [label="x[14] <= 0.5\ngini = 0.669\nsamples = 174\nvalue = [27, 17, 3, 1, 93, 4, 1, 1, 2, 16, 9]"] ;
145 -> 146 ;
147 [label="x[4] <= 0.5\ngini = 0.657\nsamples = 159\nvalue = [25, 11, 3, 1, 87, 3, 1, 1, 2, 16, 9]"] ;
146 -> 147 ;
148 [label="x[13] <= 0.5\ngini = 0.639\nsamples = 150\nvalue = [23, 10, 3, 1, 85, 3, 1, 1, 2, 14, 7]"] ;
147 -> 148 ;
149 [label="x[9] <= 0.5\ngini = 0.634\nsamples = 149\nvalue = [23, 10, 3, 1, 85, 2, 1, 1, 2, 14, 7]"] ;
148 -> 149 ;
150 [label="gini = 0.638\nsamples = 117\nvalue = [20, 10, 2, 1, 66, 2, 0, 1, 2, 7, 6]"] ;
149 -> 150 ;
151 [label="gini = 0.588\nsamples = 32\nvalue = [3, 0, 1, 0, 19, 0, 1, 0, 0, 7, 1]"] ;
149 -> 151 ;
152 [label="gini = 0.0\nsamples = 1\nvalue = [0, 0, 0, 0, 0, 1, 0, 0, 0, 0, 0]"] ;
148 -> 152 ;
153 [label="x[17] <= 0.5\ngini = 0.79\nsamples = 9\nvalue = [2, 1, 0, 0, 2, 0, 0, 0, 0, 2, 2]"] ;
147 -> 153 ;
154 [label="x[9] <= 0.5\ngini = 0.75\nsamples = 8\nvalue = [2, 0, 0, 0, 2, 0, 0, 0, 0, 2, 2]"] ;
153 -> 154 ;
155 [label="gini = 0.625\nsamples = 4\nvalue = [1, 0, 0, 0, 1, 0, 0, 0, 0, 0, 2]"] ;
154 -> 155 ;
156 [label="gini = 0.625\nsamples = 4\nvalue = [1, 0, 0, 0, 1, 0, 0, 0, 0, 2, 0]"] ;
154 -> 156 ;
157 [label="gini = 0.0\nsamples = 1\nvalue = [0, 1, 0, 0, 0, 0, 0, 0, 0, 0, 0]"] ;
153 -> 157 ;
158 [label="x[4] <= 0.5\ngini = 0.658\nsamples = 15\nvalue = [2, 6, 0, 0, 6, 1, 0, 0, 0, 0, 0]"] ;
146 -> 158 ;
159 [label="x[9] <= 0.5\ngini = 0.612\nsamples = 14\nvalue = [2, 6, 0, 0, 6, 0, 0, 0, 0, 0, 0]"] ;
158 -> 159 ;
160 [label="gini = 0.615\nsamples = 13\nvalue = [2, 6, 0, 0, 5, 0, 0, 0, 0, 0, 0]"] ;
159 -> 160 ;
161 [label="gini = 0.0\nsamples = 1\nvalue = [0, 0, 0, 0, 1, 0, 0, 0, 0, 0, 0]"] ;
159 -> 161 ;
162 [label="gini = 0.0\nsamples = 1\nvalue = [0, 0, 0, 0, 0, 1, 0, 0, 0, 0, 0]"] ;
158 -> 162 ;
163 [label="x[9] <= 0.5\ngini = 0.833\nsamples = 12\nvalue = [2, 3, 0, 1, 2, 0, 2, 0, 1, 1, 0]"] ;
145 -> 163 ;
164 [label="x[17] <= 0.5\ngini = 0.781\nsamples = 8\nvalue = [1, 3, 0, 1, 0, 0, 1, 0, 1, 1, 0]"] ;
163 -> 164 ;
165 [label="x[13] <= 0.5\ngini = 0.735\nsamples = 7\nvalue = [0, 3, 0, 1, 0, 0, 1, 0, 1, 1, 0]"] ;
164 -> 165 ;
166 [label="x[4] <= 0.5\ngini = 0.667\nsamples = 6\nvalue = [0, 3, 0, 0, 0, 0, 1, 0, 1, 1, 0]"] ;
165 -> 166 ;
167 [label="gini = 0.72\nsamples = 5\nvalue = [0, 2, 0, 0, 0, 0, 1, 0, 1, 1, 0]"] ;
166 -> 167 ;
168 [label="gini = 0.0\nsamples = 1\nvalue = [0, 1, 0, 0, 0, 0, 0, 0, 0, 0, 0]"] ;
166 -> 168 ;
169 [label="gini = 0.0\nsamples = 1\nvalue = [0, 0, 0, 1, 0, 0, 0, 0, 0, 0, 0]"] ;
165 -> 169 ;
170 [label="gini = 0.0\nsamples = 1\nvalue = [1, 0, 0, 0, 0, 0, 0, 0, 0, 0, 0]"] ;
164 -> 170 ;
171 [label="x[4] <= 0.5\ngini = 0.625\nsamples = 4\nvalue = [1, 0, 0, 0, 2, 0, 1, 0, 0, 0, 0]"] ;
163 -> 171 ;
172 [label="gini = 0.444\nsamples = 3\nvalue = [1, 0, 0, 0, 2, 0, 0, 0, 0, 0, 0]"] ;
171 -> 172 ;
173 [label="gini = 0.0\nsamples = 1\nvalue = [0, 0, 0, 0, 0, 0, 1, 0, 0, 0, 0]"] ;
171 -> 173 ;
174 [label="x[14] <= 0.5\ngini = 0.744\nsamples = 77\nvalue = [7, 27, 1, 0, 25, 0, 0, 5, 9, 1, 2]"] ;
144 -> 174 ;
175 [label="x[17] <= 0.5\ngini = 0.775\nsamples = 64\nvalue = [7, 19, 1, 0, 20, 0, 0, 5, 9, 1, 2]"] ;
174 -> 175 ;
176 [label="x[18] <= 0.5\ngini = 0.763\nsamples = 62\nvalue = [7, 19, 1, 0, 20, 0, 0, 4, 9, 1, 1]"] ;
175 -> 176 ;
177 [label="x[4] <= 0.5\ngini = 0.764\nsamples = 59\nvalue = [6, 19, 1, 0, 18, 0, 0, 4, 9, 1, 1]"] ;
176 -> 177 ;
178 [label="x[6] <= 0.5\ngini = 0.76\nsamples = 56\nvalue = [6, 18, 1, 0, 18, 0, 0, 4, 7, 1, 1]"] ;
177 -> 178 ;
179 [label="gini = 0.761\nsamples = 50\nvalue = [4, 17, 1, 0, 15, 0, 0, 4, 7, 1, 1]"] ;
178 -> 179 ;
180 [label="gini = 0.611\nsamples = 6\nvalue = [2, 1, 0, 0, 3, 0, 0, 0, 0, 0, 0]"] ;
178 -> 180 ;
181 [label="x[6] <= 0.5\ngini = 0.444\nsamples = 3\nvalue = [0, 1, 0, 0, 0, 0, 0, 0, 2, 0, 0]"] ;
177 -> 181 ;
182 [label="gini = 0.0\nsamples = 2\nvalue = [0, 0, 0, 0, 0, 0, 0, 0, 2, 0, 0]"] ;
181 -> 182 ;
183 [label="gini = 0.0\nsamples = 1\nvalue = [0, 1, 0, 0, 0, 0, 0, 0, 0, 0, 0]"] ;
181 -> 183 ;
184 [label="x[4] <= 0.5\ngini = 0.444\nsamples = 3\nvalue = [1, 0, 0, 0, 2, 0, 0, 0, 0, 0, 0]"] ;
176 -> 184 ;
185 [label="gini = 0.5\nsamples = 2\nvalue = [1, 0, 0, 0, 1, 0, 0, 0, 0, 0, 0]"] ;
184 -> 185 ;
186 [label="gini = 0.0\nsamples = 1\nvalue = [0, 0, 0, 0, 1, 0, 0, 0, 0, 0, 0]"] ;
184 -> 186 ;
187 [label="gini = 0.5\nsamples = 2\nvalue = [0, 0, 0, 0, 0, 0, 0, 1, 0, 0, 1]"] ;
175 -> 187 ;
188 [label="x[16] <= 0.5\ngini = 0.473\nsamples = 13\nvalue = [0, 8, 0, 0, 5, 0, 0, 0, 0, 0, 0]"] ;
174 -> 188 ;
189 [label="x[9] <= 0.5\ngini = 0.397\nsamples = 11\nvalue = [0, 8, 0, 0, 3, 0, 0, 0, 0, 0, 0]"] ;
188 -> 189 ;
190 [label="x[17] <= 0.5\ngini = 0.32\nsamples = 10\nvalue = [0, 8, 0, 0, 2, 0, 0, 0, 0, 0, 0]"] ;
189 -> 190 ;
191 [label="x[13] <= 0.5\ngini = 0.375\nsamples = 8\nvalue = [0, 6, 0, 0, 2, 0, 0, 0, 0, 0, 0]"] ;
190 -> 191 ;
192 [label="gini = 0.408\nsamples = 7\nvalue = [0, 5, 0, 0, 2, 0, 0, 0, 0, 0, 0]"] ;
191 -> 192 ;
193 [label="gini = 0.0\nsamples = 1\nvalue = [0, 1, 0, 0, 0, 0, 0, 0, 0, 0, 0]"] ;
191 -> 193 ;
194 [label="gini = 0.0\nsamples = 2\nvalue = [0, 2, 0, 0, 0, 0, 0, 0, 0, 0, 0]"] ;
190 -> 194 ;
195 [label="gini = 0.0\nsamples = 1\nvalue = [0, 0, 0, 0, 1, 0, 0, 0, 0, 0, 0]"] ;
189 -> 195 ;
196 [label="gini = 0.0\nsamples = 2\nvalue = [0, 0, 0, 0, 2, 0, 0, 0, 0, 0, 0]"] ;
188 -> 196 ;
197 [label="x[4] <= 0.5\ngini = 0.133\nsamples = 14\nvalue = [0, 13, 0, 0, 0, 0, 0, 0, 0, 0, 1]"] ;
143 -> 197 ;
198 [label="gini = 0.0\nsamples = 10\nvalue = [0, 10, 0, 0, 0, 0, 0, 0, 0, 0, 0]"] ;
197 -> 198 ;
199 [label="x[3] <= 0.5\ngini = 0.375\nsamples = 4\nvalue = [0, 3, 0, 0, 0, 0, 0, 0, 0, 0, 1]"] ;
197 -> 199 ;
200 [label="gini = 0.5\nsamples = 2\nvalue = [0, 1, 0, 0, 0, 0, 0, 0, 0, 0, 1]"] ;
199 -> 200 ;
201 [label="gini = 0.0\nsamples = 2\nvalue = [0, 2, 0, 0, 0, 0, 0, 0, 0, 0, 0]"] ;
199 -> 201 ;
202 [label="x[14] <= 0.5\ngini = 0.677\nsamples = 46\nvalue = [4, 20, 0, 0, 2, 0, 0, 2, 16, 0, 2]"] ;
142 -> 202 ;
203 [label="x[3] <= 0.5\ngini = 0.697\nsamples = 41\nvalue = [4, 15, 0, 0, 2, 0, 0, 2, 16, 0, 2]"] ;
202 -> 203 ;
204 [label="x[4] <= 0.5\ngini = 0.625\nsamples = 16\nvalue = [2, 9, 0, 0, 1, 0, 0, 0, 3, 0, 1]"] ;
203 -> 204 ;
205 [label="x[9] <= 0.5\ngini = 0.545\nsamples = 11\nvalue = [2, 7, 0, 0, 0, 0, 0, 0, 1, 0, 1]"] ;
204 -> 205 ;
206 [label="x[6] <= 0.5\ngini = 0.46\nsamples = 10\nvalue = [2, 7, 0, 0, 0, 0, 0, 0, 1, 0, 0]"] ;
205 -> 206 ;
207 [label="x[21] <= 0.5\ngini = 0.531\nsamples = 8\nvalue = [2, 5, 0, 0, 0, 0, 0, 0, 1, 0, 0]"] ;
206 -> 207 ;
208 [label="x[17] <= 0.5\ngini = 0.571\nsamples = 7\nvalue = [2, 4, 0, 0, 0, 0, 0, 0, 1, 0, 0]"] ;
207 -> 208 ;
209 [label="gini = 0.611\nsamples = 6\nvalue = [2, 3, 0, 0, 0, 0, 0, 0, 1, 0, 0]"] ;
208 -> 209 ;
210 [label="gini = 0.0\nsamples = 1\nvalue = [0, 1, 0, 0, 0, 0, 0, 0, 0, 0, 0]"] ;
208 -> 210 ;
211 [label="gini = 0.0\nsamples = 1\nvalue = [0, 1, 0, 0, 0, 0, 0, 0, 0, 0, 0]"] ;
207 -> 211 ;
212 [label="gini = 0.0\nsamples = 2\nvalue = [0, 2, 0, 0, 0, 0, 0, 0, 0, 0, 0]"] ;
206 -> 212 ;
213 [label="gini = 0.0\nsamples = 1\nvalue = [0, 0, 0, 0, 0, 0, 0, 0, 0, 0, 1]"] ;
205 -> 213 ;
214 [label="x[9] <= 0.5\ngini = 0.64\nsamples = 5\nvalue = [0, 2, 0, 0, 1, 0, 0, 0, 2, 0, 0]"] ;
204 -> 214 ;
215 [label="gini = 0.625\nsamples = 4\nvalue = [0, 1, 0, 0, 1, 0, 0, 0, 2, 0, 0]"] ;
214 -> 215 ;
216 [label="gini = 0.0\nsamples = 1\nvalue = [0, 1, 0, 0, 0, 0, 0, 0, 0, 0, 0]"] ;
214 -> 216 ;
217 [label="x[6] <= 0.5\ngini = 0.656\nsamples = 25\nvalue = [2, 6, 0, 0, 1, 0, 0, 2, 13, 0, 1]"] ;
203 -> 217 ;
218 [label="x[17] <= 0.5\ngini = 0.632\nsamples = 24\nvalue = [1, 6, 0, 0, 1, 0, 0, 2, 13, 0, 1]"] ;
217 -> 218 ;
219 [label="x[9] <= 0.5\ngini = 0.62\nsamples = 23\nvalue = [1, 5, 0, 0, 1, 0, 0, 2, 13, 0, 1]"] ;
218 -> 219 ;
220 [label="x[4] <= 0.5\ngini = 0.603\nsamples = 22\nvalue = [1, 4, 0, 0, 1, 0, 0, 2, 13, 0, 1]"] ;
219 -> 220 ;
221 [label="gini = 0.644\nsamples = 17\nvalue = [1, 4, 0, 0, 0, 0, 0, 2, 9, 0, 1]"] ;
220 -> 221 ;
222 [label="gini = 0.32\nsamples = 5\nvalue = [0, 0, 0, 0, 1, 0, 0, 0, 4, 0, 0]"] ;
220 -> 222 ;
223 [label="gini = 0.0\nsamples = 1\nvalue = [0, 1, 0, 0, 0, 0, 0, 0, 0, 0, 0]"] ;
219 -> 223 ;
224 [label="gini = 0.0\nsamples = 1\nvalue = [0, 1, 0, 0, 0, 0, 0, 0, 0, 0, 0]"] ;
218 -> 224 ;
225 [label="gini = 0.0\nsamples = 1\nvalue = [1, 0, 0, 0, 0, 0, 0, 0, 0, 0, 0]"] ;
217 -> 225 ;
226 [label="gini = 0.0\nsamples = 5\nvalue = [0, 5, 0, 0, 0, 0, 0, 0, 0, 0, 0]"] ;
202 -> 226 ;
227 [label="x[4] <= 0.5\ngini = 0.635\nsamples = 337\nvalue = [39, 32, 3, 8, 194, 7, 1, 0, 19, 8, 26]"] ;
5 -> 227 ;
228 [label="x[13] <= 0.5\ngini = 0.609\nsamples = 316\nvalue = [36, 30, 3, 7, 190, 6, 1, 0, 14, 8, 21]"] ;
227 -> 228 ;
229 [label="x[20] <= 0.5\ngini = 0.598\nsamples = 311\nvalue = [35, 30, 3, 6, 190, 6, 1, 0, 14, 8, 18]"] ;
228 -> 229 ;
230 [label="x[14] <= 0.5\ngini = 0.59\nsamples = 307\nvalue = [34, 27, 3, 6, 190, 6, 1, 0, 14, 8, 18]"] ;
229 -> 230 ;
231 [label="x[11] <= 0.5\ngini = 0.62\nsamples = 264\nvalue = [34, 19, 3, 6, 156, 6, 1, 0, 14, 7, 18]"] ;
230 -> 231 ;
232 [label="x[8] <= 0.5\ngini = 0.611\nsamples = 259\nvalue = [34, 16, 2, 6, 155, 6, 1, 0, 14, 7, 18]"] ;
231 -> 232 ;
233 [label="x[7] <= 0.5\ngini = 0.667\nsamples = 180\nvalue = [24, 10, 1, 6, 98, 6, 1, 0, 14, 6, 14]"] ;
232 -> 233 ;
234 [label="x[18] <= 0.5\ngini = 0.656\nsamples = 173\nvalue = [24, 8, 1, 6, 96, 6, 1, 0, 11, 6, 14]"] ;
233 -> 234 ;
235 [label="x[21] <= 0.5\ngini = 0.65\nsamples = 171\nvalue = [23, 7, 1, 6, 96, 6, 1, 0, 11, 6, 14]"] ;
234 -> 235 ;
236 [label="gini = 0.647\nsamples = 170\nvalue = [23, 6, 1, 6, 96, 6, 1, 0, 11, 6, 14]"] ;
235 -> 236 ;
237 [label="gini = 0.0\nsamples = 1\nvalue = [0, 1, 0, 0, 0, 0, 0, 0, 0, 0, 0]"] ;
235 -> 237 ;
238 [label="x[3] <= 0.5\ngini = 0.5\nsamples = 2\nvalue = [1, 1, 0, 0, 0, 0, 0, 0, 0, 0, 0]"] ;
234 -> 238 ;
239 [label="gini = 0.0\nsamples = 1\nvalue = [0, 1, 0, 0, 0, 0, 0, 0, 0, 0, 0]"] ;
238 -> 239 ;
240 [label="gini = 0.0\nsamples = 1\nvalue = [1, 0, 0, 0, 0, 0, 0, 0, 0, 0, 0]"] ;
238 -> 240 ;
241 [label="x[6] <= 0.5\ngini = 0.653\nsamples = 7\nvalue = [0, 2, 0, 0, 2, 0, 0, 0, 3, 0, 0]"] ;
233 -> 241 ;
242 [label="x[3] <= 0.5\ngini = 0.56\nsamples = 5\nvalue = [0, 1, 0, 0, 1, 0, 0, 0, 3, 0, 0]"] ;
241 -> 242 ;
243 [label="gini = 0.0\nsamples = 2\nvalue = [0, 0, 0, 0, 0, 0, 0, 0, 2, 0, 0]"] ;
242 -> 243 ;
244 [label="gini = 0.667\nsamples = 3\nvalue = [0, 1, 0, 0, 1, 0, 0, 0, 1, 0, 0]"] ;
242 -> 244 ;
245 [label="x[3] <= 0.5\ngini = 0.5\nsamples = 2\nvalue = [0, 1, 0, 0, 1, 0, 0, 0, 0, 0, 0]"] ;
241 -> 245 ;
246 [label="gini = 0.0\nsamples = 1\nvalue = [0, 1, 0, 0, 0, 0, 0, 0, 0, 0, 0]"] ;
245 -> 246 ;
247 [label="gini = 0.0\nsamples = 1\nvalue = [0, 0, 0, 0, 1, 0, 0, 0, 0, 0, 0]"] ;
245 -> 247 ;
248 [label="x[12] <= 0.5\ngini = 0.455\nsamples = 79\nvalue = [10, 6, 1, 0, 57, 0, 0, 0, 0, 1, 4]"] ;
232 -> 248 ;
249 [label="x[7] <= 0.5\ngini = 0.442\nsamples = 78\nvalue = [10, 5, 1, 0, 57, 0, 0, 0, 0, 1, 4]"] ;
248 -> 249 ;
250 [label="x[3] <= 0.5\ngini = 0.433\nsamples = 73\nvalue = [8, 5, 1, 0, 54, 0, 0, 0, 0, 1, 4]"] ;
249 -> 250 ;
251 [label="gini = 0.402\nsamples = 37\nvalue = [5, 0, 1, 0, 28, 0, 0, 0, 0, 0, 3]"] ;
250 -> 251 ;
252 [label="gini = 0.451\nsamples = 36\nvalue = [3, 5, 0, 0, 26, 0, 0, 0, 0, 1, 1]"] ;
250 -> 252 ;
253 [label="x[3] <= 0.5\ngini = 0.48\nsamples = 5\nvalue = [2, 0, 0, 0, 3, 0, 0, 0, 0, 0, 0]"] ;
249 -> 253 ;
254 [label="gini = 0.444\nsamples = 3\nvalue = [1, 0, 0, 0, 2, 0, 0, 0, 0, 0, 0]"] ;
253 -> 254 ;
255 [label="gini = 0.5\nsamples = 2\nvalue = [1, 0, 0, 0, 1, 0, 0, 0, 0, 0, 0]"] ;
253 -> 255 ;
256 [label="gini = 0.0\nsamples = 1\nvalue = [0, 1, 0, 0, 0, 0, 0, 0, 0, 0, 0]"] ;
248 -> 256 ;
257 [label="x[7] <= 0.5\ngini = 0.56\nsamples = 5\nvalue = [0, 3, 1, 0, 1, 0, 0, 0, 0, 0, 0]"] ;
231 -> 257 ;
258 [label="gini = 0.625\nsamples = 4\nvalue = [0, 2, 1, 0, 1, 0, 0, 0, 0, 0, 0]"] ;
257 -> 258 ;
259 [label="gini = 0.0\nsamples = 1\nvalue = [0, 1, 0, 0, 0, 0, 0, 0, 0, 0, 0]"] ;
257 -> 259 ;
260 [label="x[21] <= 0.5\ngini = 0.34\nsamples = 43\nvalue = [0, 8, 0, 0, 34, 0, 0, 0, 0, 1, 0]"] ;
230 -> 260 ;
261 [label="x[3] <= 0.5\ngini = 0.316\nsamples = 42\nvalue = [0, 7, 0, 0, 34, 0, 0, 0, 0, 1, 0]"] ;
260 -> 261 ;
262 [label="x[16] <= 0.5\ngini = 0.245\nsamples = 29\nvalue = [0, 3, 0, 0, 25, 0, 0, 0, 0, 1, 0]"] ;
261 -> 262 ;
263 [label="x[9] <= 0.5\ngini = 0.31\nsamples = 22\nvalue = [0, 3, 0, 0, 18, 0, 0, 0, 0, 1, 0]"] ;
262 -> 263 ;
264 [label="x[8] <= 0.5\ngini = 0.398\nsamples = 16\nvalue = [0, 3, 0, 0, 12, 0, 0, 0, 0, 1, 0]"] ;
263 -> 264 ;
265 [label="gini = 0.32\nsamples = 10\nvalue = [0, 2, 0, 0, 8, 0, 0, 0, 0, 0, 0]"] ;
264 -> 265 ;
266 [label="gini = 0.5\nsamples = 6\nvalue = [0, 1, 0, 0, 4, 0, 0, 0, 0, 1, 0]"] ;
264 -> 266 ;
267 [label="gini = 0.0\nsamples = 6\nvalue = [0, 0, 0, 0, 6, 0, 0, 0, 0, 0, 0]"] ;
263 -> 267 ;
268 [label="gini = 0.0\nsamples = 7\nvalue = [0, 0, 0, 0, 7, 0, 0, 0, 0, 0, 0]"] ;
262 -> 268 ;
269 [label="x[16] <= 0.5\ngini = 0.426\nsamples = 13\nvalue = [0, 4, 0, 0, 9, 0, 0, 0, 0, 0, 0]"] ;
261 -> 269 ;
270 [label="x[9] <= 0.5\ngini = 0.346\nsamples = 9\nvalue = [0, 2, 0, 0, 7, 0, 0, 0, 0, 0, 0]"] ;
269 -> 270 ;
271 [label="x[8] <= 0.5\ngini = 0.278\nsamples = 6\nvalue = [0, 1, 0, 0, 5, 0, 0, 0, 0, 0, 0]"] ;
270 -> 271 ;
272 [label="gini = 0.0\nsamples = 2\nvalue = [0, 0, 0, 0, 2, 0, 0, 0, 0, 0, 0]"] ;
271 -> 272 ;
273 [label="gini = 0.375\nsamples = 4\nvalue = [0, 1, 0, 0, 3, 0, 0, 0, 0, 0, 0]"] ;
271 -> 273 ;
274 [label="x[8] <= 0.5\ngini = 0.444\nsamples = 3\nvalue = [0, 1, 0, 0, 2, 0, 0, 0, 0, 0, 0]"] ;
270 -> 274 ;
275 [label="gini = 0.0\nsamples = 1\nvalue = [0, 1, 0, 0, 0, 0, 0, 0, 0, 0, 0]"] ;
274 -> 275 ;
276 [label="gini = 0.0\nsamples = 2\nvalue = [0, 0, 0, 0, 2, 0, 0, 0, 0, 0, 0]"] ;
274 -> 276 ;
277 [label="x[7] <= 0.5\ngini = 0.5\nsamples = 4\nvalue = [0, 2, 0, 0, 2, 0, 0, 0, 0, 0, 0]"] ;
269 -> 277 ;
278 [label="x[8] <= 0.5\ngini = 0.444\nsamples = 3\nvalue = [0, 2, 0, 0, 1, 0, 0, 0, 0, 0, 0]"] ;
277 -> 278 ;
279 [label="gini = 0.0\nsamples = 1\nvalue = [0, 1, 0, 0, 0, 0, 0, 0, 0, 0, 0]"] ;
278 -> 279 ;
280 [label="gini = 0.5\nsamples = 2\nvalue = [0, 1, 0, 0, 1, 0, 0, 0, 0, 0, 0]"] ;
278 -> 280 ;
281 [label="gini = 0.0\nsamples = 1\nvalue = [0, 0, 0, 0, 1, 0, 0, 0, 0, 0, 0]"] ;
277 -> 281 ;
282 [label="gini = 0.0\nsamples = 1\nvalue = [0, 1, 0, 0, 0, 0, 0, 0, 0, 0, 0]"] ;
260 -> 282 ;
283 [label="x[3] <= 0.5\ngini = 0.375\nsamples = 4\nvalue = [1, 3, 0, 0, 0, 0, 0, 0, 0, 0, 0]"] ;
229 -> 283 ;
284 [label="gini = 0.0\nsamples = 2\nvalue = [0, 2, 0, 0, 0, 0, 0, 0, 0, 0, 0]"] ;
283 -> 284 ;
285 [label="x[17] <= 0.5\ngini = 0.5\nsamples = 2\nvalue = [1, 1, 0, 0, 0, 0, 0, 0, 0, 0, 0]"] ;
283 -> 285 ;
286 [label="gini = 0.0\nsamples = 1\nvalue = [1, 0, 0, 0, 0, 0, 0, 0, 0, 0, 0]"] ;
285 -> 286 ;
287 [label="gini = 0.0\nsamples = 1\nvalue = [0, 1, 0, 0, 0, 0, 0, 0, 0, 0, 0]"] ;
285 -> 287 ;
288 [label="x[9] <= 0.5\ngini = 0.56\nsamples = 5\nvalue = [1, 0, 0, 1, 0, 0, 0, 0, 0, 0, 3]"] ;
228 -> 288 ;
289 [label="x[3] <= 0.5\ngini = 0.375\nsamples = 4\nvalue = [0, 0, 0, 1, 0, 0, 0, 0, 0, 0, 3]"] ;
288 -> 289 ;
290 [label="gini = 0.444\nsamples = 3\nvalue = [0, 0, 0, 1, 0, 0, 0, 0, 0, 0, 2]"] ;
289 -> 290 ;
291 [label="gini = 0.0\nsamples = 1\nvalue = [0, 0, 0, 0, 0, 0, 0, 0, 0, 0, 1]"] ;
289 -> 291 ;
292 [label="gini = 0.0\nsamples = 1\nvalue = [1, 0, 0, 0, 0, 0, 0, 0, 0, 0, 0]"] ;
288 -> 292 ;
293 [label="x[3] <= 0.5\ngini = 0.816\nsamples = 21\nvalue = [3, 2, 0, 1, 4, 1, 0, 0, 5, 0, 5]"] ;
227 -> 293 ;
294 [label="x[13] <= 0.5\ngini = 0.711\nsamples = 11\nvalue = [2, 0, 0, 1, 0, 1, 0, 0, 2, 0, 5]"] ;
293 -> 294 ;
295 [label="x[17] <= 0.5\ngini = 0.66\nsamples = 10\nvalue = [2, 0, 0, 0, 0, 1, 0, 0, 2, 0, 5]"] ;
294 -> 295 ;
296 [label="x[21] <= 0.5\ngini = 0.617\nsamples = 9\nvalue = [1, 0, 0, 0, 0, 1, 0, 0, 2, 0, 5]"] ;
295 -> 296 ;
297 [label="x[7] <= 0.5\ngini = 0.531\nsamples = 8\nvalue = [0, 0, 0, 0, 0, 1, 0, 0, 2, 0, 5]"] ;
296 -> 297 ;
298 [label="x[8] <= 0.5\ngini = 0.449\nsamples = 7\nvalue = [0, 0, 0, 0, 0, 1, 0, 0, 1, 0, 5]"] ;
297 -> 298 ;
299 [label="x[6] <= 0.5\ngini = 0.56\nsamples = 5\nvalue = [0, 0, 0, 0, 0, 1, 0, 0, 1, 0, 3]"] ;
298 -> 299 ;
300 [label="gini = 0.625\nsamples = 4\nvalue = [0, 0, 0, 0, 0, 1, 0, 0, 1, 0, 2]"] ;
299 -> 300 ;
301 [label="gini = 0.0\nsamples = 1\nvalue = [0, 0, 0, 0, 0, 0, 0, 0, 0, 0, 1]"] ;
299 -> 301 ;
302 [label="gini = 0.0\nsamples = 2\nvalue = [0, 0, 0, 0, 0, 0, 0, 0, 0, 0, 2]"] ;
298 -> 302 ;
303 [label="gini = 0.0\nsamples = 1\nvalue = [0, 0, 0, 0, 0, 0, 0, 0, 1, 0, 0]"] ;
297 -> 303 ;
304 [label="gini = 0.0\nsamples = 1\nvalue = [1, 0, 0, 0, 0, 0, 0, 0, 0, 0, 0]"] ;
296 -> 304 ;
305 [label="gini = 0.0\nsamples = 1\nvalue = [1, 0, 0, 0, 0, 0, 0, 0, 0, 0, 0]"] ;
295 -> 305 ;
306 [label="gini = 0.0\nsamples = 1\nvalue = [0, 0, 0, 1, 0, 0, 0, 0, 0, 0, 0]"] ;
294 -> 306 ;
307 [label="x[6] <= 0.5\ngini = 0.7\nsamples = 10\nvalue = [1, 2, 0, 0, 4, 0, 0, 0, 3, 0, 0]"] ;
293 -> 307 ;
308 [label="x[14] <= 0.5\ngini = 0.642\nsamples = 9\nvalue = [0, 2, 0, 0, 4, 0, 0, 0, 3, 0, 0]"] ;
307 -> 308 ;
309 [label="x[11] <= 0.5\ngini = 0.594\nsamples = 8\nvalue = [0, 1, 0, 0, 4, 0, 0, 0, 3, 0, 0]"] ;
308 -> 309 ;
310 [label="x[9] <= 0.5\ngini = 0.49\nsamples = 7\nvalue = [0, 0, 0, 0, 4, 0, 0, 0, 3, 0, 0]"] ;
309 -> 310 ;
311 [label="x[17] <= 0.5\ngini = 0.5\nsamples = 6\nvalue = [0, 0, 0, 0, 3, 0, 0, 0, 3, 0, 0]"] ;
310 -> 311 ;
312 [label="gini = 0.48\nsamples = 5\nvalue = [0, 0, 0, 0, 2, 0, 0, 0, 3, 0, 0]"] ;
311 -> 312 ;
313 [label="gini = 0.0\nsamples = 1\nvalue = [0, 0, 0, 0, 1, 0, 0, 0, 0, 0, 0]"] ;
311 -> 313 ;
314 [label="gini = 0.0\nsamples = 1\nvalue = [0, 0, 0, 0, 1, 0, 0, 0, 0, 0, 0]"] ;
310 -> 314 ;
315 [label="gini = 0.0\nsamples = 1\nvalue = [0, 1, 0, 0, 0, 0, 0, 0, 0, 0, 0]"] ;
309 -> 315 ;
316 [label="gini = 0.0\nsamples = 1\nvalue = [0, 1, 0, 0, 0, 0, 0, 0, 0, 0, 0]"] ;
308 -> 316 ;
317 [label="gini = 0.0\nsamples = 1\nvalue = [1, 0, 0, 0, 0, 0, 0, 0, 0, 0, 0]"] ;
307 -> 317 ;
318 [label="x[3] <= 0.5\ngini = 0.8\nsamples = 563\nvalue = [104, 41, 2, 16, 31, 19, 207, 5, 39, 49, 50]"] ;
4 -> 318 ;
319 [label="x[7] <= 0.5\ngini = 0.758\nsamples = 412\nvalue = [58, 30, 1, 14, 18, 17, 181, 2, 12, 43, 36]"] ;
318 -> 319 ;
320 [label="x[6] <= 0.5\ngini = 0.737\nsamples = 382\nvalue = [51, 21, 1, 12, 16, 17, 178, 2, 8, 40, 36]"] ;
319 -> 320 ;
321 [label="x[4] <= 0.5\ngini = 0.717\nsamples = 345\nvalue = [44, 19, 1, 10, 14, 16, 170, 2, 8, 32, 29]"] ;
320 -> 321 ;
322 [label="x[10] <= 0.5\ngini = 0.695\nsamples = 312\nvalue = [35, 18, 1, 7, 13, 15, 162, 2, 5, 29, 25]"] ;
321 -> 322 ;
323 [label="x[17] <= 0.5\ngini = 0.674\nsamples = 294\nvalue = [31, 18, 1, 6, 9, 13, 159, 2, 4, 27, 24]"] ;
322 -> 323 ;
324 [label="x[9] <= 0.5\ngini = 0.664\nsamples = 287\nvalue = [30, 18, 1, 5, 7, 12, 158, 2, 4, 27, 23]"] ;
323 -> 324 ;
325 [label="x[18] <= 0.5\ngini = 0.691\nsamples = 234\nvalue = [25, 16, 1, 4, 4, 12, 122, 2, 4, 24, 20]"] ;
324 -> 325 ;
326 [label="x[20] <= 0.5\ngini = 0.686\nsamples = 230\nvalue = [25, 16, 1, 3, 4, 12, 121, 2, 4, 22, 20]"] ;
325 -> 326 ;
327 [label="x[11] <= 0.5\ngini = 0.684\nsamples = 229\nvalue = [25, 15, 1, 3, 4, 12, 121, 2, 4, 22, 20]"] ;
326 -> 327 ;
328 [label="gini = 0.682\nsamples = 228\nvalue = [25, 14, 1, 3, 4, 12, 121, 2, 4, 22, 20]"] ;
327 -> 328 ;
329 [label="gini = 0.0\nsamples = 1\nvalue = [0, 1, 0, 0, 0, 0, 0, 0, 0, 0, 0]"] ;
327 -> 329 ;
330 [label="gini = 0.0\nsamples = 1\nvalue = [0, 1, 0, 0, 0, 0, 0, 0, 0, 0, 0]"] ;
326 -> 330 ;
331 [label="x[8] <= 0.5\ngini = 0.625\nsamples = 4\nvalue = [0, 0, 0, 1, 0, 0, 1, 0, 0, 2, 0]"] ;
325 -> 331 ;
332 [label="gini = 0.444\nsamples = 3\nvalue = [0, 0, 0, 1, 0, 0, 0, 0, 0, 2, 0]"] ;
331 -> 332 ;
333 [label="gini = 0.0\nsamples = 1\nvalue = [0, 0, 0, 0, 0, 0, 1, 0, 0, 0, 0]"] ;
331 -> 333 ;
334 [label="x[19] <= 0.5\ngini = 0.518\nsamples = 53\nvalue = [5, 2, 0, 1, 3, 0, 36, 0, 0, 3, 3]"] ;
324 -> 334 ;
335 [label="x[13] <= 0.5\ngini = 0.509\nsamples = 51\nvalue = [5, 2, 0, 1, 3, 0, 35, 0, 0, 2, 3]"] ;
334 -> 335 ;
336 [label="x[8] <= 0.5\ngini = 0.507\nsamples = 48\nvalue = [5, 2, 0, 1, 3, 0, 33, 0, 0, 2, 2]"] ;
335 -> 336 ;
337 [label="gini = 0.515\nsamples = 44\nvalue = [4, 2, 0, 1, 3, 0, 30, 0, 0, 2, 2]"] ;
336 -> 337 ;
338 [label="gini = 0.375\nsamples = 4\nvalue = [1, 0, 0, 0, 0, 0, 3, 0, 0, 0, 0]"] ;
336 -> 338 ;
339 [label="x[8] <= 0.5\ngini = 0.444\nsamples = 3\nvalue = [0, 0, 0, 0, 0, 0, 2, 0, 0, 0, 1]"] ;
335 -> 339 ;
340 [label="gini = 0.0\nsamples = 2\nvalue = [0, 0, 0, 0, 0, 0, 2, 0, 0, 0, 0]"] ;
339 -> 340 ;
341 [label="gini = 0.0\nsamples = 1\nvalue = [0, 0, 0, 0, 0, 0, 0, 0, 0, 0, 1]"] ;
339 -> 341 ;
342 [label="x[13] <= 0.5\ngini = 0.5\nsamples = 2\nvalue = [0, 0, 0, 0, 0, 0, 1, 0, 0, 1, 0]"] ;
334 -> 342 ;
343 [label="gini = 0.0\nsamples = 1\nvalue = [0, 0, 0, 0, 0, 0, 0, 0, 0, 1, 0]"] ;
342 -> 343 ;
344 [label="gini = 0.0\nsamples = 1\nvalue = [0, 0, 0, 0, 0, 0, 1, 0, 0, 0, 0]"] ;
342 -> 344 ;
345 [label="x[13] <= 0.5\ngini = 0.816\nsamples = 7\nvalue = [1, 0, 0, 1, 2, 1, 1, 0, 0, 0, 1]"] ;
323 -> 345 ;
346 [label="x[9] <= 0.5\ngini = 0.778\nsamples = 6\nvalue = [1, 0, 0, 0, 2, 1, 1, 0, 0, 0, 1]"] ;
345 -> 346 ;
347 [label="gini = 0.75\nsamples = 4\nvalue = [0, 0, 0, 0, 1, 1, 1, 0, 0, 0, 1]"] ;
346 -> 347 ;
348 [label="x[8] <= 0.5\ngini = 0.5\nsamples = 2\nvalue = [1, 0, 0, 0, 1, 0, 0, 0, 0, 0, 0]"] ;
346 -> 348 ;
349 [label="gini = 0.0\nsamples = 1\nvalue = [1, 0, 0, 0, 0, 0, 0, 0, 0, 0, 0]"] ;
348 -> 349 ;
350 [label="gini = 0.0\nsamples = 1\nvalue = [0, 0, 0, 0, 1, 0, 0, 0, 0, 0, 0]"] ;
348 -> 350 ;
351 [label="gini = 0.0\nsamples = 1\nvalue = [0, 0, 0, 1, 0, 0, 0, 0, 0, 0, 0]"] ;
345 -> 351 ;
352 [label="x[13] <= 0.5\ngini = 0.84\nsamples = 18\nvalue = [4, 0, 0, 1, 4, 2, 3, 0, 1, 2, 1]"] ;
322 -> 352 ;
353 [label="x[9] <= 0.5\ngini = 0.824\nsamples = 17\nvalue = [4, 0, 0, 0, 4, 2, 3, 0, 1, 2, 1]"] ;
352 -> 353 ;
354 [label="x[8] <= 0.5\ngini = 0.805\nsamples = 13\nvalue = [4, 0, 0, 0, 3, 2, 1, 0, 1, 1, 1]"] ;
353 -> 354 ;
355 [label="gini = 0.82\nsamples = 10\nvalue = [3, 0, 0, 0, 2, 1, 1, 0, 1, 1, 1]"] ;
354 -> 355 ;
356 [label="gini = 0.667\nsamples = 3\nvalue = [1, 0, 0, 0, 1, 1, 0, 0, 0, 0, 0]"] ;
354 -> 356 ;
357 [label="x[8] <= 0.5\ngini = 0.625\nsamples = 4\nvalue = [0, 0, 0, 0, 1, 0, 2, 0, 0, 1, 0]"] ;
353 -> 357 ;
358 [label="gini = 0.0\nsamples = 1\nvalue = [0, 0, 0, 0, 1, 0, 0, 0, 0, 0, 0]"] ;
357 -> 358 ;
359 [label="x[18] <= 0.5\ngini = 0.444\nsamples = 3\nvalue = [0, 0, 0, 0, 0, 0, 2, 0, 0, 1, 0]"] ;
357 -> 359 ;
360 [label="gini = 0.0\nsamples = 2\nvalue = [0, 0, 0, 0, 0, 0, 2, 0, 0, 0, 0]"] ;
359 -> 360 ;
361 [label="gini = 0.0\nsamples = 1\nvalue = [0, 0, 0, 0, 0, 0, 0, 0, 0, 1, 0]"] ;
359 -> 361 ;
362 [label="gini = 0.0\nsamples = 1\nvalue = [0, 0, 0, 1, 0, 0, 0, 0, 0, 0, 0]"] ;
352 -> 362 ;
363 [label="x[14] <= 0.5\ngini = 0.825\nsamples = 33\nvalue = [9, 1, 0, 3, 1, 1, 8, 0, 3, 3, 4]"] ;
321 -> 363 ;
364 [label="x[8] <= 0.5\ngini = 0.814\nsamples = 32\nvalue = [9, 0, 0, 3, 1, 1, 8, 0, 3, 3, 4]"] ;
363 -> 364 ;
365 [label="x[17] <= 0.5\ngini = 0.801\nsamples = 28\nvalue = [9, 0, 0, 2, 1, 0, 6, 0, 3, 3, 4]"] ;
364 -> 365 ;
366 [label="x[22] <= 0.5\ngini = 0.781\nsamples = 26\nvalue = [9, 0, 0, 2, 0, 0, 6, 0, 3, 3, 3]"] ;
365 -> 366 ;
367 [label="x[10] <= 0.5\ngini = 0.757\nsamples = 24\nvalue = [9, 0, 0, 1, 0, 0, 6, 0, 3, 3, 2]"] ;
366 -> 367 ;
368 [label="x[13] <= 0.5\ngini = 0.737\nsamples = 23\nvalue = [9, 0, 0, 0, 0, 0, 6, 0, 3, 3, 2]"] ;
367 -> 368 ;
369 [label="gini = 0.77\nsamples = 19\nvalue = [6, 0, 0, 0, 0, 0, 5, 0, 3, 3, 2]"] ;
368 -> 369 ;
370 [label="gini = 0.375\nsamples = 4\nvalue = [3, 0, 0, 0, 0, 0, 1, 0, 0, 0, 0]"] ;
368 -> 370 ;
371 [label="gini = 0.0\nsamples = 1\nvalue = [0, 0, 0, 1, 0, 0, 0, 0, 0, 0, 0]"] ;
367 -> 371 ;
372 [label="gini = 0.5\nsamples = 2\nvalue = [0, 0, 0, 1, 0, 0, 0, 0, 0, 0, 1]"] ;
366 -> 372 ;
373 [label="x[9] <= 0.5\ngini = 0.5\nsamples = 2\nvalue = [0, 0, 0, 0, 1, 0, 0, 0, 0, 0, 1]"] ;
365 -> 373 ;
374 [label="gini = 0.0\nsamples = 1\nvalue = [0, 0, 0, 0, 0, 0, 0, 0, 0, 0, 1]"] ;
373 -> 374 ;
375 [label="gini = 0.0\nsamples = 1\nvalue = [0, 0, 0, 0, 1, 0, 0, 0, 0, 0, 0]"] ;
373 -> 375 ;
376 [label="x[9] <= 0.5\ngini = 0.625\nsamples = 4\nvalue = [0, 0, 0, 1, 0, 1, 2, 0, 0, 0, 0]"] ;
364 -> 376 ;
377 [label="x[13] <= 0.5\ngini = 0.667\nsamples = 3\nvalue = [0, 0, 0, 1, 0, 1, 1, 0, 0, 0, 0]"] ;
376 -> 377 ;
378 [label="gini = 0.5\nsamples = 2\nvalue = [0, 0, 0, 1, 0, 1, 0, 0, 0, 0, 0]"] ;
377 -> 378 ;
379 [label="gini = 0.0\nsamples = 1\nvalue = [0, 0, 0, 0, 0, 0, 1, 0, 0, 0, 0]"] ;
377 -> 379 ;
380 [label="gini = 0.0\nsamples = 1\nvalue = [0, 0, 0, 0, 0, 0, 1, 0, 0, 0, 0]"] ;
376 -> 380 ;
381 [label="gini = 0.0\nsamples = 1\nvalue = [0, 1, 0, 0, 0, 0, 0, 0, 0, 0, 0]"] ;
363 -> 381 ;
382 [label="x[4] <= 0.5\ngini = 0.825\nsamples = 37\nvalue = [7, 2, 0, 2, 2, 1, 8, 0, 0, 8, 7]"] ;
320 -> 382 ;
383 [label="x[9] <= 0.5\ngini = 0.816\nsamples = 35\nvalue = [7, 2, 0, 2, 2, 0, 8, 0, 0, 8, 6]"] ;
382 -> 383 ;
384 [label="x[8] <= 0.5\ngini = 0.823\nsamples = 24\nvalue = [5, 2, 0, 2, 2, 0, 6, 0, 0, 5, 2]"] ;
383 -> 384 ;
385 [label="x[10] <= 0.5\ngini = 0.824\nsamples = 23\nvalue = [4, 2, 0, 2, 2, 0, 6, 0, 0, 5, 2]"] ;
384 -> 385 ;
386 [label="x[13] <= 0.5\ngini = 0.826\nsamples = 22\nvalue = [4, 2, 0, 2, 2, 0, 6, 0, 0, 4, 2]"] ;
385 -> 386 ;
387 [label="gini = 0.815\nsamples = 18\nvalue = [3, 1, 0, 2, 1, 0, 5, 0, 0, 4, 2]"] ;
386 -> 387 ;
388 [label="gini = 0.75\nsamples = 4\nvalue = [1, 1, 0, 0, 1, 0, 1, 0, 0, 0, 0]"] ;
386 -> 388 ;
389 [label="gini = 0.0\nsamples = 1\nvalue = [0, 0, 0, 0, 0, 0, 0, 0, 0, 1, 0]"] ;
385 -> 389 ;
390 [label="gini = 0.0\nsamples = 1\nvalue = [1, 0, 0, 0, 0, 0, 0, 0, 0, 0, 0]"] ;
384 -> 390 ;
391 [label="x[8] <= 0.5\ngini = 0.727\nsamples = 11\nvalue = [2, 0, 0, 0, 0, 0, 2, 0, 0, 3, 4]"] ;
383 -> 391 ;
392 [label="x[22] <= 0.5\ngini = 0.7\nsamples = 10\nvalue = [2, 0, 0, 0, 0, 0, 1, 0, 0, 3, 4]"] ;
391 -> 392 ;
393 [label="x[10] <= 0.5\ngini = 0.667\nsamples = 9\nvalue = [1, 0, 0, 0, 0, 0, 1, 0, 0, 3, 4]"] ;
392 -> 393 ;
394 [label="gini = 0.688\nsamples = 8\nvalue = [1, 0, 0, 0, 0, 0, 1, 0, 0, 3, 3]"] ;
393 -> 394 ;
395 [label="gini = 0.0\nsamples = 1\nvalue = [0, 0, 0, 0, 0, 0, 0, 0, 0, 0, 1]"] ;
393 -> 395 ;
396 [label="gini = 0.0\nsamples = 1\nvalue = [1, 0, 0, 0, 0, 0, 0, 0, 0, 0, 0]"] ;
392 -> 396 ;
397 [label="gini = 0.0\nsamples = 1\nvalue = [0, 0, 0, 0, 0, 0, 1, 0, 0, 0, 0]"] ;
391 -> 397 ;
398 [label="x[22] <= 0.5\ngini = 0.5\nsamples = 2\nvalue = [0, 0, 0, 0, 0, 1, 0, 0, 0, 0, 1]"] ;
382 -> 398 ;
399 [label="gini = 0.0\nsamples = 1\nvalue = [0, 0, 0, 0, 0, 1, 0, 0, 0, 0, 0]"] ;
398 -> 399 ;
400 [label="gini = 0.0\nsamples = 1\nvalue = [0, 0, 0, 0, 0, 0, 0, 0, 0, 0, 1]"] ;
398 -> 400 ;
401 [label="x[4] <= 0.5\ngini = 0.809\nsamples = 30\nvalue = [7, 9, 0, 2, 2, 0, 3, 0, 4, 3, 0]"] ;
319 -> 401 ;
402 [label="x[8] <= 0.5\ngini = 0.828\nsamples = 26\nvalue = [7, 5, 0, 2, 2, 0, 3, 0, 4, 3, 0]"] ;
401 -> 402 ;
403 [label="x[17] <= 0.5\ngini = 0.816\nsamples = 24\nvalue = [7, 5, 0, 2, 2, 0, 2, 0, 4, 2, 0]"] ;
402 -> 403 ;
404 [label="x[20] <= 0.5\ngini = 0.813\nsamples = 23\nvalue = [7, 5, 0, 2, 2, 0, 2, 0, 3, 2, 0]"] ;
403 -> 404 ;
405 [label="x[6] <= 0.5\ngini = 0.814\nsamples = 22\nvalue = [7, 4, 0, 2, 2, 0, 2, 0, 3, 2, 0]"] ;
404 -> 405 ;
406 [label="x[11] <= 0.5\ngini = 0.807\nsamples = 21\nvalue = [7, 4, 0, 2, 2, 0, 2, 0, 2, 2, 0]"] ;
405 -> 406 ;
407 [label="x[9] <= 0.5\ngini = 0.805\nsamples = 20\nvalue = [7, 3, 0, 2, 2, 0, 2, 0, 2, 2, 0]"] ;
406 -> 407 ;
408 [label="x[10] <= 0.5\ngini = 0.781\nsamples = 16\nvalue = [6, 3, 0, 1, 1, 0, 1, 0, 2, 2, 0]"] ;
407 -> 408 ;
409 [label="gini = 0.735\nsamples = 14\nvalue = [6, 3, 0, 1, 0, 0, 1, 0, 2, 1, 0]"] ;
408 -> 409 ;
410 [label="gini = 0.5\nsamples = 2\nvalue = [0, 0, 0, 0, 1, 0, 0, 0, 0, 1, 0]"] ;
408 -> 410 ;
411 [label="x[13] <= 0.5\ngini = 0.75\nsamples = 4\nvalue = [1, 0, 0, 1, 1, 0, 1, 0, 0, 0, 0]"] ;
407 -> 411 ;
412 [label="gini = 0.667\nsamples = 3\nvalue = [0, 0, 0, 1, 1, 0, 1, 0, 0, 0, 0]"] ;
411 -> 412 ;
413 [label="gini = 0.0\nsamples = 1\nvalue = [1, 0, 0, 0, 0, 0, 0, 0, 0, 0, 0]"] ;
411 -> 413 ;
414 [label="gini = 0.0\nsamples = 1\nvalue = [0, 1, 0, 0, 0, 0, 0, 0, 0, 0, 0]"] ;
406 -> 414 ;
415 [label="gini = 0.0\nsamples = 1\nvalue = [0, 0, 0, 0, 0, 0, 0, 0, 1, 0, 0]"] ;
405 -> 415 ;
416 [label="gini = 0.0\nsamples = 1\nvalue = [0, 1, 0, 0, 0, 0, 0, 0, 0, 0, 0]"] ;
404 -> 416 ;
417 [label="gini = 0.0\nsamples = 1\nvalue = [0, 0, 0, 0, 0, 0, 0, 0, 1, 0, 0]"] ;
403 -> 417 ;
418 [label="x[6] <= 0.5\ngini = 0.5\nsamples = 2\nvalue = [0, 0, 0, 0, 0, 0, 1, 0, 0, 1, 0]"] ;
402 -> 418 ;
419 [label="gini = 0.0\nsamples = 1\nvalue = [0, 0, 0, 0, 0, 0, 0, 0, 0, 1, 0]"] ;
418 -> 419 ;
420 [label="gini = 0.0\nsamples = 1\nvalue = [0, 0, 0, 0, 0, 0, 1, 0, 0, 0, 0]"] ;
418 -> 420 ;
421 [label="gini = 0.0\nsamples = 4\nvalue = [0, 4, 0, 0, 0, 0, 0, 0, 0, 0, 0]"] ;
401 -> 421 ;
422 [label="x[7] <= 0.5\ngini = 0.822\nsamples = 151\nvalue = [46, 11, 1, 2, 13, 2, 26, 3, 27, 6, 14]"] ;
318 -> 422 ;
423 [label="x[11] <= 0.5\ngini = 0.807\nsamples = 123\nvalue = [42, 6, 1, 2, 13, 2, 23, 2, 14, 4, 14]"] ;
422 -> 423 ;
424 [label="x[10] <= 0.5\ngini = 0.802\nsamples = 121\nvalue = [42, 4, 1, 2, 13, 2, 23, 2, 14, 4, 14]"] ;
423 -> 424 ;
425 [label="x[4] <= 0.5\ngini = 0.797\nsamples = 99\nvalue = [34, 4, 1, 1, 6, 2, 21, 1, 12, 4, 13]"] ;
424 -> 425 ;
426 [label="x[17] <= 0.5\ngini = 0.815\nsamples = 91\nvalue = [28, 4, 1, 1, 6, 2, 19, 1, 12, 4, 13]"] ;
425 -> 426 ;
427 [label="x[6] <= 0.5\ngini = 0.809\nsamples = 88\nvalue = [28, 3, 1, 1, 6, 2, 19, 1, 12, 4, 11]"] ;
426 -> 427 ;
428 [label="x[8] <= 0.5\ngini = 0.781\nsamples = 71\nvalue = [24, 2, 1, 0, 3, 2, 19, 1, 9, 2, 8]"] ;
427 -> 428 ;
429 [label="x[20] <= 0.5\ngini = 0.775\nsamples = 70\nvalue = [24, 1, 1, 0, 3, 2, 19, 1, 9, 2, 8]"] ;
428 -> 429 ;
430 [label="x[18] <= 0.5\ngini = 0.77\nsamples = 69\nvalue = [24, 1, 1, 0, 2, 2, 19, 1, 9, 2, 8]"] ;
429 -> 430 ;
431 [label="gini = 0.771\nsamples = 68\nvalue = [24, 1, 1, 0, 2, 2, 18, 1, 9, 2, 8]"] ;
430 -> 431 ;
432 [label="gini = 0.0\nsamples = 1\nvalue = [0, 0, 0, 0, 0, 0, 1, 0, 0, 0, 0]"] ;
430 -> 432 ;
433 [label="gini = 0.0\nsamples = 1\nvalue = [0, 0, 0, 0, 1, 0, 0, 0, 0, 0, 0]"] ;
429 -> 433 ;
434 [label="gini = 0.0\nsamples = 1\nvalue = [0, 1, 0, 0, 0, 0, 0, 0, 0, 0, 0]"] ;
428 -> 434 ;
435 [label="x[8] <= 0.5\ngini = 0.83\nsamples = 17\nvalue = [4, 1, 0, 1, 3, 0, 0, 0, 3, 2, 3]"] ;
427 -> 435 ;
436 [label="x[9] <= 0.5\ngini = 0.837\nsamples = 14\nvalue = [2, 1, 0, 1, 2, 0, 0, 0, 3, 2, 3]"] ;
435 -> 436 ;
437 [label="x[18] <= 0.5\ngini = 0.817\nsamples = 13\nvalue = [2, 1, 0, 0, 2, 0, 0, 0, 3, 2, 3]"] ;
436 -> 437 ;
438 [label="gini = 0.793\nsamples = 11\nvalue = [1, 1, 0, 0, 2, 0, 0, 0, 3, 1, 3]"] ;
437 -> 438 ;
439 [label="gini = 0.5\nsamples = 2\nvalue = [1, 0, 0, 0, 0, 0, 0, 0, 0, 1, 0]"] ;
437 -> 439 ;
440 [label="gini = 0.0\nsamples = 1\nvalue = [0, 0, 0, 1, 0, 0, 0, 0, 0, 0, 0]"] ;
436 -> 440 ;
441 [label="x[9] <= 0.5\ngini = 0.444\nsamples = 3\nvalue = [2, 0, 0, 0, 1, 0, 0, 0, 0, 0, 0]"] ;
435 -> 441 ;
442 [label="gini = 0.0\nsamples = 1\nvalue = [1, 0, 0, 0, 0, 0, 0, 0, 0, 0, 0]"] ;
441 -> 442 ;
443 [label="x[19] <= 0.5\ngini = 0.5\nsamples = 2\nvalue = [1, 0, 0, 0, 1, 0, 0, 0, 0, 0, 0]"] ;
441 -> 443 ;
444 [label="gini = 0.0\nsamples = 1\nvalue = [0, 0, 0, 0, 1, 0, 0, 0, 0, 0, 0]"] ;
443 -> 444 ;
445 [label="gini = 0.0\nsamples = 1\nvalue = [1, 0, 0, 0, 0, 0, 0, 0, 0, 0, 0]"] ;
443 -> 445 ;
446 [label="x[22] <= 0.5\ngini = 0.444\nsamples = 3\nvalue = [0, 1, 0, 0, 0, 0, 0, 0, 0, 0, 2]"] ;
426 -> 446 ;
447 [label="x[20] <= 0.5\ngini = 0.5\nsamples = 2\nvalue = [0, 1, 0, 0, 0, 0, 0, 0, 0, 0, 1]"] ;
446 -> 447 ;
448 [label="gini = 0.0\nsamples = 1\nvalue = [0, 1, 0, 0, 0, 0, 0, 0, 0, 0, 0]"] ;
447 -> 448 ;
449 [label="gini = 0.0\nsamples = 1\nvalue = [0, 0, 0, 0, 0, 0, 0, 0, 0, 0, 1]"] ;
447 -> 449 ;
450 [label="gini = 0.0\nsamples = 1\nvalue = [0, 0, 0, 0, 0, 0, 0, 0, 0, 0, 1]"] ;
446 -> 450 ;
451 [label="x[9] <= 0.5\ngini = 0.375\nsamples = 8\nvalue = [6, 0, 0, 0, 0, 0, 2, 0, 0, 0, 0]"] ;
425 -> 451 ;
452 [label="gini = 0.408\nsamples = 7\nvalue = [5, 0, 0, 0, 0, 0, 2, 0, 0, 0, 0]"] ;
451 -> 452 ;
453 [label="gini = 0.0\nsamples = 1\nvalue = [1, 0, 0, 0, 0, 0, 0, 0, 0, 0, 0]"] ;
451 -> 453 ;
454 [label="x[9] <= 0.5\ngini = 0.744\nsamples = 22\nvalue = [8, 0, 0, 1, 7, 0, 2, 1, 2, 0, 1]"] ;
424 -> 454 ;
455 [label="x[4] <= 0.5\ngini = 0.716\nsamples = 18\nvalue = [6, 0, 0, 1, 7, 0, 0, 1, 2, 0, 1]"] ;
454 -> 455 ;
456 [label="x[17] <= 0.5\ngini = 0.658\nsamples = 15\nvalue = [5, 0, 0, 1, 7, 0, 0, 1, 1, 0, 0]"] ;
455 -> 456 ;
457 [label="x[18] <= 0.5\ngini = 0.653\nsamples = 14\nvalue = [4, 0, 0, 1, 7, 0, 0, 1, 1, 0, 0]"] ;
456 -> 457 ;
458 [label="x[14] <= 0.5\ngini = 0.675\nsamples = 13\nvalue = [4, 0, 0, 1, 6, 0, 0, 1, 1, 0, 0]"] ;
457 -> 458 ;
459 [label="x[8] <= 0.5\ngini = 0.694\nsamples = 12\nvalue = [4, 0, 0, 1, 5, 0, 0, 1, 1, 0, 0]"] ;
458 -> 459 ;
460 [label="gini = 0.694\nsamples = 7\nvalue = [2, 0, 0, 0, 3, 0, 0, 1, 1, 0, 0]"] ;
459 -> 460 ;
461 [label="gini = 0.64\nsamples = 5\nvalue = [2, 0, 0, 1, 2, 0, 0, 0, 0, 0, 0]"] ;
459 -> 461 ;
462 [label="gini = 0.0\nsamples = 1\nvalue = [0, 0, 0, 0, 1, 0, 0, 0, 0, 0, 0]"] ;
458 -> 462 ;
463 [label="gini = 0.0\nsamples = 1\nvalue = [0, 0, 0, 0, 1, 0, 0, 0, 0, 0, 0]"] ;
457 -> 463 ;
464 [label="gini = 0.0\nsamples = 1\nvalue = [1, 0, 0, 0, 0, 0, 0, 0, 0, 0, 0]"] ;
456 -> 464 ;
465 [label="x[6] <= 0.5\ngini = 0.667\nsamples = 3\nvalue = [1, 0, 0, 0, 0, 0, 0, 0, 1, 0, 1]"] ;
455 -> 465 ;
466 [label="gini = 0.0\nsamples = 1\nvalue = [0, 0, 0, 0, 0, 0, 0, 0, 0, 0, 1]"] ;
465 -> 466 ;
467 [label="gini = 0.5\nsamples = 2\nvalue = [1, 0, 0, 0, 0, 0, 0, 0, 1, 0, 0]"] ;
465 -> 467 ;
468 [label="x[4] <= 0.5\ngini = 0.5\nsamples = 4\nvalue = [2, 0, 0, 0, 0, 0, 2, 0, 0, 0, 0]"] ;
454 -> 468 ;
469 [label="x[8] <= 0.5\ngini = 0.444\nsamples = 3\nvalue = [1, 0, 0, 0, 0, 0, 2, 0, 0, 0, 0]"] ;
468 -> 469 ;
470 [label="gini = 0.5\nsamples = 2\nvalue = [1, 0, 0, 0, 0, 0, 1, 0, 0, 0, 0]"] ;
469 -> 470 ;
471 [label="gini = 0.0\nsamples = 1\nvalue = [0, 0, 0, 0, 0, 0, 1, 0, 0, 0, 0]"] ;
469 -> 471 ;
472 [label="gini = 0.0\nsamples = 1\nvalue = [1, 0, 0, 0, 0, 0, 0, 0, 0, 0, 0]"] ;
468 -> 472 ;
473 [label="gini = 0.0\nsamples = 2\nvalue = [0, 2, 0, 0, 0, 0, 0, 0, 0, 0, 0]"] ;
423 -> 473 ;
474 [label="x[6] <= 0.5\ngini = 0.714\nsamples = 28\nvalue = [4, 5, 0, 0, 0, 0, 3, 1, 13, 2, 0]"] ;
422 -> 474 ;
475 [label="x[9] <= 0.5\ngini = 0.576\nsamples = 21\nvalue = [2, 2, 0, 0, 0, 0, 3, 1, 13, 0, 0]"] ;
474 -> 475 ;
476 [label="x[8] <= 0.5\ngini = 0.504\nsamples = 19\nvalue = [1, 2, 0, 0, 0, 0, 2, 1, 13, 0, 0]"] ;
475 -> 476 ;
477 [label="x[4] <= 0.5\ngini = 0.414\nsamples = 16\nvalue = [1, 1, 0, 0, 0, 0, 2, 0, 12, 0, 0]"] ;
476 -> 477 ;
478 [label="x[10] <= 0.5\ngini = 0.459\nsamples = 14\nvalue = [1, 1, 0, 0, 0, 0, 2, 0, 10, 0, 0]"] ;
477 -> 478 ;
479 [label="gini = 0.485\nsamples = 13\nvalue = [1, 1, 0, 0, 0, 0, 2, 0, 9, 0, 0]"] ;
478 -> 479 ;
480 [label="gini = 0.0\nsamples = 1\nvalue = [0, 0, 0, 0, 0, 0, 0, 0, 1, 0, 0]"] ;
478 -> 480 ;
481 [label="gini = 0.0\nsamples = 2\nvalue = [0, 0, 0, 0, 0, 0, 0, 0, 2, 0, 0]"] ;
477 -> 481 ;
482 [label="gini = 0.667\nsamples = 3\nvalue = [0, 1, 0, 0, 0, 0, 0, 1, 1, 0, 0]"] ;
476 -> 482 ;
483 [label="x[10] <= 0.5\ngini = 0.5\nsamples = 2\nvalue = [1, 0, 0, 0, 0, 0, 1, 0, 0, 0, 0]"] ;
475 -> 483 ;
484 [label="gini = 0.0\nsamples = 1\nvalue = [0, 0, 0, 0, 0, 0, 1, 0, 0, 0, 0]"] ;
483 -> 484 ;
485 [label="gini = 0.0\nsamples = 1\nvalue = [1, 0, 0, 0, 0, 0, 0, 0, 0, 0, 0]"] ;
483 -> 485 ;
486 [label="x[20] <= 0.5\ngini = 0.653\nsamples = 7\nvalue = [2, 3, 0, 0, 0, 0, 0, 0, 0, 2, 0]"] ;
474 -> 486 ;
487 [label="x[14] <= 0.5\ngini = 0.64\nsamples = 5\nvalue = [2, 1, 0, 0, 0, 0, 0, 0, 0, 2, 0]"] ;
486 -> 487 ;
488 [label="x[17] <= 0.5\ngini = 0.5\nsamples = 4\nvalue = [2, 0, 0, 0, 0, 0, 0, 0, 0, 2, 0]"] ;
487 -> 488 ;
489 [label="x[10] <= 0.5\ngini = 0.444\nsamples = 3\nvalue = [2, 0, 0, 0, 0, 0, 0, 0, 0, 1, 0]"] ;
488 -> 489 ;
490 [label="gini = 0.0\nsamples = 1\nvalue = [1, 0, 0, 0, 0, 0, 0, 0, 0, 0, 0]"] ;
489 -> 490 ;
491 [label="x[9] <= 0.5\ngini = 0.5\nsamples = 2\nvalue = [1, 0, 0, 0, 0, 0, 0, 0, 0, 1, 0]"] ;
489 -> 491 ;
492 [label="gini = 0.0\nsamples = 1\nvalue = [0, 0, 0, 0, 0, 0, 0, 0, 0, 1, 0]"] ;
491 -> 492 ;
493 [label="gini = 0.0\nsamples = 1\nvalue = [1, 0, 0, 0, 0, 0, 0, 0, 0, 0, 0]"] ;
491 -> 493 ;
494 [label="gini = 0.0\nsamples = 1\nvalue = [0, 0, 0, 0, 0, 0, 0, 0, 0, 1, 0]"] ;
488 -> 494 ;
495 [label="gini = 0.0\nsamples = 1\nvalue = [0, 1, 0, 0, 0, 0, 0, 0, 0, 0, 0]"] ;
487 -> 495 ;
496 [label="gini = 0.0\nsamples = 2\nvalue = [0, 2, 0, 0, 0, 0, 0, 0, 0, 0, 0]"] ;
486 -> 496 ;
497 [label="x[3] <= 0.5\ngini = 0.239\nsamples = 222\nvalue = [15, 193, 0, 0, 3, 2, 0, 0, 4, 3, 2]"] ;
3 -> 497 ;
498 [label="x[9] <= 0.5\ngini = 0.336\nsamples = 110\nvalue = [9, 89, 0, 0, 2, 2, 0, 0, 3, 3, 2]"] ;
497 -> 498 ;
499 [label="x[1] <= 0.5\ngini = 0.273\nsamples = 99\nvalue = [7, 84, 0, 0, 1, 1, 0, 0, 3, 2, 1]"] ;
498 -> 499 ;
500 [label="x[18] <= 0.5\ngini = 0.253\nsamples = 94\nvalue = [5, 81, 0, 0, 1, 1, 0, 0, 3, 2, 1]"] ;
499 -> 500 ;
501 [label="x[21] <= 0.5\ngini = 0.239\nsamples = 92\nvalue = [5, 80, 0, 0, 1, 1, 0, 0, 3, 1, 1]"] ;
500 -> 501 ;
502 [label="x[6] <= 0.5\ngini = 0.291\nsamples = 74\nvalue = [5, 62, 0, 0, 1, 1, 0, 0, 3, 1, 1]"] ;
501 -> 502 ;
503 [label="x[7] <= 0.5\ngini = 0.322\nsamples = 66\nvalue = [5, 54, 0, 0, 1, 1, 0, 0, 3, 1, 1]"] ;
502 -> 503 ;
504 [label="x[11] <= 0.5\ngini = 0.289\nsamples = 50\nvalue = [3, 42, 0, 0, 1, 1, 0, 0, 1, 1, 1]"] ;
503 -> 504 ;
505 [label="x[4] <= 0.5\ngini = 0.317\nsamples = 45\nvalue = [3, 37, 0, 0, 1, 1, 0, 0, 1, 1, 1]"] ;
504 -> 505 ;
506 [label="x[8] <= 0.5\ngini = 0.307\nsamples = 41\nvalue = [2, 34, 0, 0, 1, 1, 0, 0, 1, 1, 1]"] ;
505 -> 506 ;
507 [label="x[17] <= 0.5\ngini = 0.291\nsamples = 31\nvalue = [1, 26, 0, 0, 0, 1, 0, 0, 1, 1, 1]"] ;
506 -> 507 ;
508 [label="gini = 0.319\nsamples = 28\nvalue = [1, 23, 0, 0, 0, 1, 0, 0, 1, 1, 1]"] ;
507 -> 508 ;
509 [label="gini = 0.0\nsamples = 3\nvalue = [0, 3, 0, 0, 0, 0, 0, 0, 0, 0, 0]"] ;
507 -> 509 ;
510 [label="x[23] <= 0.5\ngini = 0.34\nsamples = 10\nvalue = [1, 8, 0, 0, 1, 0, 0, 0, 0, 0, 0]"] ;
506 -> 510 ;
511 [label="gini = 0.406\nsamples = 8\nvalue = [1, 6, 0, 0, 1, 0, 0, 0, 0, 0, 0]"] ;
510 -> 511 ;
512 [label="gini = 0.0\nsamples = 2\nvalue = [0, 2, 0, 0, 0, 0, 0, 0, 0, 0, 0]"] ;
510 -> 512 ;
513 [label="x[20] <= 0.5\ngini = 0.375\nsamples = 4\nvalue = [1, 3, 0, 0, 0, 0, 0, 0, 0, 0, 0]"] ;
505 -> 513 ;
514 [label="gini = 0.444\nsamples = 3\nvalue = [1, 2, 0, 0, 0, 0, 0, 0, 0, 0, 0]"] ;
513 -> 514 ;
515 [label="gini = 0.0\nsamples = 1\nvalue = [0, 1, 0, 0, 0, 0, 0, 0, 0, 0, 0]"] ;
513 -> 515 ;
516 [label="gini = 0.0\nsamples = 5\nvalue = [0, 5, 0, 0, 0, 0, 0, 0, 0, 0, 0]"] ;
504 -> 516 ;
517 [label="x[4] <= 0.5\ngini = 0.406\nsamples = 16\nvalue = [2, 12, 0, 0, 0, 0, 0, 0, 2, 0, 0]"] ;
503 -> 517 ;
518 [label="x[14] <= 0.5\ngini = 0.346\nsamples = 9\nvalue = [2, 7, 0, 0, 0, 0, 0, 0, 0, 0, 0]"] ;
517 -> 518 ;
519 [label="x[8] <= 0.5\ngini = 0.408\nsamples = 7\nvalue = [2, 5, 0, 0, 0, 0, 0, 0, 0, 0, 0]"] ;
518 -> 519 ;
520 [label="gini = 0.32\nsamples = 5\nvalue = [1, 4, 0, 0, 0, 0, 0, 0, 0, 0, 0]"] ;
519 -> 520 ;
521 [label="x[17] <= 0.5\ngini = 0.5\nsamples = 2\nvalue = [1, 1, 0, 0, 0, 0, 0, 0, 0, 0, 0]"] ;
519 -> 521 ;
522 [label="gini = 0.0\nsamples = 1\nvalue = [1, 0, 0, 0, 0, 0, 0, 0, 0, 0, 0]"] ;
521 -> 522 ;
523 [label="gini = 0.0\nsamples = 1\nvalue = [0, 1, 0, 0, 0, 0, 0, 0, 0, 0, 0]"] ;
521 -> 523 ;
524 [label="gini = 0.0\nsamples = 2\nvalue = [0, 2, 0, 0, 0, 0, 0, 0, 0, 0, 0]"] ;
518 -> 524 ;
525 [label="x[8] <= 0.5\ngini = 0.408\nsamples = 7\nvalue = [0, 5, 0, 0, 0, 0, 0, 0, 2, 0, 0]"] ;
517 -> 525 ;
526 [label="x[13] <= 0.5\ngini = 0.444\nsamples = 6\nvalue = [0, 4, 0, 0, 0, 0, 0, 0, 2, 0, 0]"] ;
525 -> 526 ;
527 [label="x[11] <= 0.5\ngini = 0.48\nsamples = 5\nvalue = [0, 3, 0, 0, 0, 0, 0, 0, 2, 0, 0]"] ;
526 -> 527 ;
528 [label="gini = 0.5\nsamples = 4\nvalue = [0, 2, 0, 0, 0, 0, 0, 0, 2, 0, 0]"] ;
527 -> 528 ;
529 [label="gini = 0.0\nsamples = 1\nvalue = [0, 1, 0, 0, 0, 0, 0, 0, 0, 0, 0]"] ;
527 -> 529 ;
530 [label="gini = 0.0\nsamples = 1\nvalue = [0, 1, 0, 0, 0, 0, 0, 0, 0, 0, 0]"] ;
526 -> 530 ;
531 [label="gini = 0.0\nsamples = 1\nvalue = [0, 1, 0, 0, 0, 0, 0, 0, 0, 0, 0]"] ;
525 -> 531 ;
532 [label="gini = 0.0\nsamples = 8\nvalue = [0, 8, 0, 0, 0, 0, 0, 0, 0, 0, 0]"] ;
502 -> 532 ;
533 [label="gini = 0.0\nsamples = 18\nvalue = [0, 18, 0, 0, 0, 0, 0, 0, 0, 0, 0]"] ;
501 -> 533 ;
534 [label="x[6] <= 0.5\ngini = 0.5\nsamples = 2\nvalue = [0, 1, 0, 0, 0, 0, 0, 0, 0, 1, 0]"] ;
500 -> 534 ;
535 [label="gini = 0.0\nsamples = 1\nvalue = [0, 0, 0, 0, 0, 0, 0, 0, 0, 1, 0]"] ;
534 -> 535 ;
536 [label="gini = 0.0\nsamples = 1\nvalue = [0, 1, 0, 0, 0, 0, 0, 0, 0, 0, 0]"] ;
534 -> 536 ;
537 [label="x[4] <= 0.5\ngini = 0.48\nsamples = 5\nvalue = [2, 3, 0, 0, 0, 0, 0, 0, 0, 0, 0]"] ;
499 -> 537 ;
538 [label="x[7] <= 0.5\ngini = 0.5\nsamples = 4\nvalue = [2, 2, 0, 0, 0, 0, 0, 0, 0, 0, 0]"] ;
537 -> 538 ;
539 [label="x[8] <= 0.5\ngini = 0.444\nsamples = 3\nvalue = [2, 1, 0, 0, 0, 0, 0, 0, 0, 0, 0]"] ;
538 -> 539 ;
540 [label="gini = 0.0\nsamples = 1\nvalue = [1, 0, 0, 0, 0, 0, 0, 0, 0, 0, 0]"] ;
539 -> 540 ;
541 [label="gini = 0.5\nsamples = 2\nvalue = [1, 1, 0, 0, 0, 0, 0, 0, 0, 0, 0]"] ;
539 -> 541 ;
542 [label="gini = 0.0\nsamples = 1\nvalue = [0, 1, 0, 0, 0, 0, 0, 0, 0, 0, 0]"] ;
538 -> 542 ;
543 [label="gini = 0.0\nsamples = 1\nvalue = [0, 1, 0, 0, 0, 0, 0, 0, 0, 0, 0]"] ;
537 -> 543 ;
544 [label="x[21] <= 0.5\ngini = 0.727\nsamples = 11\nvalue = [2, 5, 0, 0, 1, 1, 0, 0, 0, 1, 1]"] ;
498 -> 544 ;
545 [label="x[7] <= 0.5\ngini = 0.812\nsamples = 8\nvalue = [2, 2, 0, 0, 1, 1, 0, 0, 0, 1, 1]"] ;
544 -> 545 ;
546 [label="x[10] <= 0.5\ngini = 0.778\nsamples = 6\nvalue = [2, 0, 0, 0, 1, 1, 0, 0, 0, 1, 1]"] ;
545 -> 546 ;
547 [label="x[20] <= 0.5\ngini = 0.72\nsamples = 5\nvalue = [2, 0, 0, 0, 1, 0, 0, 0, 0, 1, 1]"] ;
546 -> 547 ;
548 [label="x[1] <= 0.5\ngini = 0.75\nsamples = 4\nvalue = [1, 0, 0, 0, 1, 0, 0, 0, 0, 1, 1]"] ;
547 -> 548 ;
549 [label="x[8] <= 0.5\ngini = 0.667\nsamples = 3\nvalue = [0, 0, 0, 0, 1, 0, 0, 0, 0, 1, 1]"] ;
548 -> 549 ;
550 [label="gini = 0.0\nsamples = 1\nvalue = [0, 0, 0, 0, 1, 0, 0, 0, 0, 0, 0]"] ;
549 -> 550 ;
551 [label="gini = 0.5\nsamples = 2\nvalue = [0, 0, 0, 0, 0, 0, 0, 0, 0, 1, 1]"] ;
549 -> 551 ;
552 [label="gini = 0.0\nsamples = 1\nvalue = [1, 0, 0, 0, 0, 0, 0, 0, 0, 0, 0]"] ;
548 -> 552 ;
553 [label="gini = 0.0\nsamples = 1\nvalue = [1, 0, 0, 0, 0, 0, 0, 0, 0, 0, 0]"] ;
547 -> 553 ;
554 [label="gini = 0.0\nsamples = 1\nvalue = [0, 0, 0, 0, 0, 1, 0, 0, 0, 0, 0]"] ;
546 -> 554 ;
555 [label="gini = 0.0\nsamples = 2\nvalue = [0, 2, 0, 0, 0, 0, 0, 0, 0, 0, 0]"] ;
545 -> 555 ;
556 [label="gini = 0.0\nsamples = 3\nvalue = [0, 3, 0, 0, 0, 0, 0, 0, 0, 0, 0]"] ;
544 -> 556 ;
557 [label="x[18] <= 0.5\ngini = 0.135\nsamples = 112\nvalue = [6, 104, 0, 0, 1, 0, 0, 0, 1, 0, 0]"] ;
497 -> 557 ;
558 [label="x[10] <= 0.5\ngini = 0.121\nsamples = 110\nvalue = [5, 103, 0, 0, 1, 0, 0, 0, 1, 0, 0]"] ;
557 -> 558 ;
559 [label="x[7] <= 0.5\ngini = 0.093\nsamples = 103\nvalue = [4, 98, 0, 0, 0, 0, 0, 0, 1, 0, 0]"] ;
558 -> 559 ;
560 [label="x[14] <= 0.5\ngini = 0.15\nsamples = 62\nvalue = [4, 57, 0, 0, 0, 0, 0, 0, 1, 0, 0]"] ;
559 -> 560 ;
561 [label="x[6] <= 0.5\ngini = 0.194\nsamples = 47\nvalue = [4, 42, 0, 0, 0, 0, 0, 0, 1, 0, 0]"] ;
560 -> 561 ;
562 [label="x[17] <= 0.5\ngini = 0.224\nsamples = 40\nvalue = [4, 35, 0, 0, 0, 0, 0, 0, 1, 0, 0]"] ;
561 -> 562 ;
563 [label="x[8] <= 0.5\ngini = 0.251\nsamples = 35\nvalue = [4, 30, 0, 0, 0, 0, 0, 0, 1, 0, 0]"] ;
562 -> 563 ;
564 [label="x[20] <= 0.5\ngini = 0.299\nsamples = 23\nvalue = [3, 19, 0, 0, 0, 0, 0, 0, 1, 0, 0]"] ;
563 -> 564 ;
565 [label="x[11] <= 0.5\ngini = 0.349\nsamples = 19\nvalue = [3, 15, 0, 0, 0, 0, 0, 0, 1, 0, 0]"] ;
564 -> 565 ;
566 [label="x[19] <= 0.5\ngini = 0.398\nsamples = 16\nvalue = [3, 12, 0, 0, 0, 0, 0, 0, 1, 0, 0]"] ;
565 -> 566 ;
567 [label="gini = 0.418\nsamples = 15\nvalue = [3, 11, 0, 0, 0, 0, 0, 0, 1, 0, 0]"] ;
566 -> 567 ;
568 [label="gini = 0.0\nsamples = 1\nvalue = [0, 1, 0, 0, 0, 0, 0, 0, 0, 0, 0]"] ;
566 -> 568 ;
569 [label="gini = 0.0\nsamples = 3\nvalue = [0, 3, 0, 0, 0, 0, 0, 0, 0, 0, 0]"] ;
565 -> 569 ;
570 [label="gini = 0.0\nsamples = 4\nvalue = [0, 4, 0, 0, 0, 0, 0, 0, 0, 0, 0]"] ;
564 -> 570 ;
571 [label="x[20] <= 0.5\ngini = 0.153\nsamples = 12\nvalue = [1, 11, 0, 0, 0, 0, 0, 0, 0, 0, 0]"] ;
563 -> 571 ;
572 [label="gini = 0.0\nsamples = 10\nvalue = [0, 10, 0, 0, 0, 0, 0, 0, 0, 0, 0]"] ;
571 -> 572 ;
573 [label="x[23] <= 0.5\ngini = 0.5\nsamples = 2\nvalue = [1, 1, 0, 0, 0, 0, 0, 0, 0, 0, 0]"] ;
571 -> 573 ;
574 [label="gini = 0.0\nsamples = 1\nvalue = [1, 0, 0, 0, 0, 0, 0, 0, 0, 0, 0]"] ;
573 -> 574 ;
575 [label="gini = 0.0\nsamples = 1\nvalue = [0, 1, 0, 0, 0, 0, 0, 0, 0, 0, 0]"] ;
573 -> 575 ;
576 [label="gini = 0.0\nsamples = 5\nvalue = [0, 5, 0, 0, 0, 0, 0, 0, 0, 0, 0]"] ;
562 -> 576 ;
577 [label="gini = 0.0\nsamples = 7\nvalue = [0, 7, 0, 0, 0, 0, 0, 0, 0, 0, 0]"] ;
561 -> 577 ;
578 [label="gini = 0.0\nsamples = 15\nvalue = [0, 15, 0, 0, 0, 0, 0, 0, 0, 0, 0]"] ;
560 -> 578 ;
579 [label="gini = 0.0\nsamples = 41\nvalue = [0, 41, 0, 0, 0, 0, 0, 0, 0, 0, 0]"] ;
559 -> 579 ;
580 [label="x[23] <= 0.5\ngini = 0.449\nsamples = 7\nvalue = [1, 5, 0, 0, 1, 0, 0, 0, 0, 0, 0]"] ;
558 -> 580 ;
581 [label="x[8] <= 0.5\ngini = 0.278\nsamples = 6\nvalue = [0, 5, 0, 0, 1, 0, 0, 0, 0, 0, 0]"] ;
580 -> 581 ;
582 [label="gini = 0.0\nsamples = 2\nvalue = [0, 2, 0, 0, 0, 0, 0, 0, 0, 0, 0]"] ;
581 -> 582 ;
583 [label="x[7] <= 0.5\ngini = 0.375\nsamples = 4\nvalue = [0, 3, 0, 0, 1, 0, 0, 0, 0, 0, 0]"] ;
581 -> 583 ;
584 [label="x[11] <= 0.5\ngini = 0.5\nsamples = 2\nvalue = [0, 1, 0, 0, 1, 0, 0, 0, 0, 0, 0]"] ;
583 -> 584 ;
585 [label="gini = 0.0\nsamples = 1\nvalue = [0, 0, 0, 0, 1, 0, 0, 0, 0, 0, 0]"] ;
584 -> 585 ;
586 [label="gini = 0.0\nsamples = 1\nvalue = [0, 1, 0, 0, 0, 0, 0, 0, 0, 0, 0]"] ;
584 -> 586 ;
587 [label="gini = 0.0\nsamples = 2\nvalue = [0, 2, 0, 0, 0, 0, 0, 0, 0, 0, 0]"] ;
583 -> 587 ;
588 [label="gini = 0.0\nsamples = 1\nvalue = [1, 0, 0, 0, 0, 0, 0, 0, 0, 0, 0]"] ;
580 -> 588 ;
589 [label="x[21] <= 0.5\ngini = 0.5\nsamples = 2\nvalue = [1, 1, 0, 0, 0, 0, 0, 0, 0, 0, 0]"] ;
557 -> 589 ;
590 [label="gini = 0.0\nsamples = 1\nvalue = [0, 1, 0, 0, 0, 0, 0, 0, 0, 0, 0]"] ;
589 -> 590 ;
591 [label="gini = 0.0\nsamples = 1\nvalue = [1, 0, 0, 0, 0, 0, 0, 0, 0, 0, 0]"] ;
589 -> 591 ;
592 [label="x[3] <= 0.5\ngini = 0.729\nsamples = 1178\nvalue = [273, 98, 3, 10, 29, 525, 31, 10, 90, 33, 76]"] ;
2 -> 592 ;
593 [label="x[15] <= 0.5\ngini = 0.658\nsamples = 908\nvalue = [189, 48, 2, 10, 16, 486, 28, 0, 45, 24, 60]"] ;
592 -> 593 ;
594 [label="x[1] <= 0.5\ngini = 0.642\nsamples = 875\nvalue = [180, 29, 2, 10, 16, 483, 27, 0, 45, 23, 60]"] ;
593 -> 594 ;
595 [label="x[7] <= 0.5\ngini = 0.612\nsamples = 747\nvalue = [138, 29, 2, 9, 15, 437, 1, 0, 45, 17, 54]"] ;
594 -> 595 ;
596 [label="x[17] <= 0.5\ngini = 0.583\nsamples = 683\nvalue = [123, 16, 2, 9, 14, 418, 1, 0, 32, 16, 52]"] ;
595 -> 596 ;
597 [label="x[14] <= 0.5\ngini = 0.57\nsamples = 665\nvalue = [119, 15, 2, 9, 12, 415, 1, 0, 30, 16, 46]"] ;
596 -> 597 ;
598 [label="x[10] <= 0.5\ngini = 0.562\nsamples = 657\nvalue = [116, 14, 2, 9, 9, 415, 1, 0, 30, 16, 45]"] ;
597 -> 598 ;
599 [label="x[20] <= 0.5\ngini = 0.547\nsamples = 622\nvalue = [105, 14, 2, 7, 4, 401, 1, 0, 30, 15, 43]"] ;
598 -> 599 ;
600 [label="x[4] <= 0.5\ngini = 0.538\nsamples = 611\nvalue = [102, 12, 2, 7, 4, 399, 1, 0, 30, 14, 40]"] ;
599 -> 600 ;
601 [label="x[18] <= 0.5\ngini = 0.523\nsamples = 570\nvalue = [91, 11, 2, 7, 4, 380, 1, 0, 22, 14, 38]"] ;
600 -> 601 ;
602 [label="x[8] <= 0.5\ngini = 0.516\nsamples = 564\nvalue = [90, 11, 2, 7, 4, 379, 1, 0, 21, 12, 37]"] ;
601 -> 602 ;
603 [label="x[6] <= 0.5\ngini = 0.507\nsamples = 546\nvalue = [86, 9, 2, 7, 1, 371, 1, 0, 21, 11, 37]"] ;
602 -> 603 ;
604 [label="gini = 0.492\nsamples = 517\nvalue = [81, 7, 2, 6, 0, 357, 1, 0, 20, 9, 34]"] ;
603 -> 604 ;
605 [label="gini = 0.713\nsamples = 29\nvalue = [5, 2, 0, 1, 1, 14, 0, 0, 1, 2, 3]"] ;
603 -> 605 ;
606 [label="x[9] <= 0.5\ngini = 0.71\nsamples = 18\nvalue = [4, 2, 0, 0, 3, 8, 0, 0, 0, 1, 0]"] ;
602 -> 606 ;
607 [label="gini = 0.694\nsamples = 12\nvalue = [4, 1, 0, 0, 1, 5, 0, 0, 0, 1, 0]"] ;
606 -> 607 ;
608 [label="gini = 0.611\nsamples = 6\nvalue = [0, 1, 0, 0, 2, 3, 0, 0, 0, 0, 0]"] ;
606 -> 608 ;
609 [label="x[13] <= 0.5\ngini = 0.778\nsamples = 6\nvalue = [1, 0, 0, 0, 0, 1, 0, 0, 1, 2, 1]"] ;
601 -> 609 ;
610 [label="gini = 0.8\nsamples = 5\nvalue = [1, 0, 0, 0, 0, 1, 0, 0, 1, 1, 1]"] ;
609 -> 610 ;
611 [label="gini = 0.0\nsamples = 1\nvalue = [0, 0, 0, 0, 0, 0, 0, 0, 0, 1, 0]"] ;
609 -> 611 ;
612 [label="x[13] <= 0.5\ngini = 0.672\nsamples = 41\nvalue = [11, 1, 0, 0, 0, 19, 0, 0, 8, 0, 2]"] ;
600 -> 612 ;
613 [label="x[6] <= 0.5\ngini = 0.645\nsamples = 35\nvalue = [9, 1, 0, 0, 0, 17, 0, 0, 8, 0, 0]"] ;
612 -> 613 ;
614 [label="x[8] <= 0.5\ngini = 0.659\nsamples = 33\nvalue = [9, 1, 0, 0, 0, 15, 0, 0, 8, 0, 0]"] ;
613 -> 614 ;
615 [label="gini = 0.656\nsamples = 30\nvalue = [7, 1, 0, 0, 0, 14, 0, 0, 8, 0, 0]"] ;
614 -> 615 ;
616 [label="gini = 0.444\nsamples = 3\nvalue = [2, 0, 0, 0, 0, 1, 0, 0, 0, 0, 0]"] ;
614 -> 616 ;
617 [label="gini = 0.0\nsamples = 2\nvalue = [0, 0, 0, 0, 0, 2, 0, 0, 0, 0, 0]"] ;
613 -> 617 ;
618 [label="gini = 0.667\nsamples = 6\nvalue = [2, 0, 0, 0, 0, 2, 0, 0, 0, 0, 2]"] ;
612 -> 618 ;
619 [label="x[6] <= 0.5\ngini = 0.777\nsamples = 11\nvalue = [3, 2, 0, 0, 0, 2, 0, 0, 0, 1, 3]"] ;
599 -> 619 ;
620 [label="x[4] <= 0.5\ngini = 0.76\nsamples = 10\nvalue = [3, 2, 0, 0, 0, 1, 0, 0, 0, 1, 3]"] ;
619 -> 620 ;
621 [label="x[8] <= 0.5\ngini = 0.741\nsamples = 9\nvalue = [3, 1, 0, 0, 0, 1, 0, 0, 0, 1, 3]"] ;
620 -> 621 ;
622 [label="x[13] <= 0.5\ngini = 0.694\nsamples = 7\nvalue = [2, 1, 0, 0, 0, 0, 0, 0, 0, 1, 3]"] ;
621 -> 622 ;
623 [label="gini = 0.722\nsamples = 6\nvalue = [2, 1, 0, 0, 0, 0, 0, 0, 0, 1, 2]"] ;
622 -> 623 ;
624 [label="gini = 0.0\nsamples = 1\nvalue = [0, 0, 0, 0, 0, 0, 0, 0, 0, 0, 1]"] ;
622 -> 624 ;
625 [label="gini = 0.5\nsamples = 2\nvalue = [1, 0, 0, 0, 0, 1, 0, 0, 0, 0, 0]"] ;
621 -> 625 ;
626 [label="gini = 0.0\nsamples = 1\nvalue = [0, 1, 0, 0, 0, 0, 0, 0, 0, 0, 0]"] ;
620 -> 626 ;
627 [label="gini = 0.0\nsamples = 1\nvalue = [0, 0, 0, 0, 0, 1, 0, 0, 0, 0, 0]"] ;
619 -> 627 ;
628 [label="x[8] <= 0.5\ngini = 0.713\nsamples = 35\nvalue = [11, 0, 0, 2, 5, 14, 0, 0, 0, 1, 2]"] ;
598 -> 628 ;
629 [label="x[13] <= 0.5\ngini = 0.704\nsamples = 30\nvalue = [11, 0, 0, 2, 4, 11, 0, 0, 0, 0, 2]"] ;
628 -> 629 ;
630 [label="x[9] <= 0.5\ngini = 0.691\nsamples = 28\nvalue = [11, 0, 0, 2, 4, 10, 0, 0, 0, 0, 1]"] ;
629 -> 630 ;
631 [label="x[19] <= 0.5\ngini = 0.68\nsamples = 26\nvalue = [11, 0, 0, 2, 3, 9, 0, 0, 0, 0, 1]"] ;
630 -> 631 ;
632 [label="x[4] <= 0.5\ngini = 0.688\nsamples = 25\nvalue = [10, 0, 0, 2, 3, 9, 0, 0, 0, 0, 1]"] ;
631 -> 632 ;
633 [label="gini = 0.707\nsamples = 22\nvalue = [8, 0, 0, 2, 3, 8, 0, 0, 0, 0, 1]"] ;
632 -> 633 ;
634 [label="gini = 0.444\nsamples = 3\nvalue = [2, 0, 0, 0, 0, 1, 0, 0, 0, 0, 0]"] ;
632 -> 634 ;
635 [label="gini = 0.0\nsamples = 1\nvalue = [1, 0, 0, 0, 0, 0, 0, 0, 0, 0, 0]"] ;
631 -> 635 ;
636 [label="x[4] <= 0.5\ngini = 0.5\nsamples = 2\nvalue = [0, 0, 0, 0, 1, 1, 0, 0, 0, 0, 0]"] ;
630 -> 636 ;
637 [label="gini = 0.0\nsamples = 1\nvalue = [0, 0, 0, 0, 1, 0, 0, 0, 0, 0, 0]"] ;
636 -> 637 ;
638 [label="gini = 0.0\nsamples = 1\nvalue = [0, 0, 0, 0, 0, 1, 0, 0, 0, 0, 0]"] ;
636 -> 638 ;
639 [label="gini = 0.5\nsamples = 2\nvalue = [0, 0, 0, 0, 0, 1, 0, 0, 0, 0, 1]"] ;
629 -> 639 ;
640 [label="x[4] <= 0.5\ngini = 0.56\nsamples = 5\nvalue = [0, 0, 0, 0, 1, 3, 0, 0, 0, 1, 0]"] ;
628 -> 640 ;
641 [label="x[6] <= 0.5\ngini = 0.667\nsamples = 3\nvalue = [0, 0, 0, 0, 1, 1, 0, 0, 0, 1, 0]"] ;
640 -> 641 ;
642 [label="gini = 0.5\nsamples = 2\nvalue = [0, 0, 0, 0, 1, 1, 0, 0, 0, 0, 0]"] ;
641 -> 642 ;
643 [label="gini = 0.0\nsamples = 1\nvalue = [0, 0, 0, 0, 0, 0, 0, 0, 0, 1, 0]"] ;
641 -> 643 ;
644 [label="gini = 0.0\nsamples = 2\nvalue = [0, 0, 0, 0, 0, 2, 0, 0, 0, 0, 0]"] ;
640 -> 644 ;
645 [label="x[4] <= 0.5\ngini = 0.688\nsamples = 8\nvalue = [3, 1, 0, 0, 3, 0, 0, 0, 0, 0, 1]"] ;
597 -> 645 ;
646 [label="x[6] <= 0.5\ngini = 0.611\nsamples = 6\nvalue = [2, 0, 0, 0, 3, 0, 0, 0, 0, 0, 1]"] ;
645 -> 646 ;
647 [label="x[10] <= 0.5\ngini = 0.56\nsamples = 5\nvalue = [1, 0, 0, 0, 3, 0, 0, 0, 0, 0, 1]"] ;
646 -> 647 ;
648 [label="x[9] <= 0.5\ngini = 0.625\nsamples = 4\nvalue = [1, 0, 0, 0, 2, 0, 0, 0, 0, 0, 1]"] ;
647 -> 648 ;
649 [label="x[16] <= 0.5\ngini = 0.667\nsamples = 3\nvalue = [1, 0, 0, 0, 1, 0, 0, 0, 0, 0, 1]"] ;
648 -> 649 ;
650 [label="gini = 0.5\nsamples = 2\nvalue = [1, 0, 0, 0, 0, 0, 0, 0, 0, 0, 1]"] ;
649 -> 650 ;
651 [label="gini = 0.0\nsamples = 1\nvalue = [0, 0, 0, 0, 1, 0, 0, 0, 0, 0, 0]"] ;
649 -> 651 ;
652 [label="gini = 0.0\nsamples = 1\nvalue = [0, 0, 0, 0, 1, 0, 0, 0, 0, 0, 0]"] ;
648 -> 652 ;
653 [label="gini = 0.0\nsamples = 1\nvalue = [0, 0, 0, 0, 1, 0, 0, 0, 0, 0, 0]"] ;
647 -> 653 ;
654 [label="gini = 0.0\nsamples = 1\nvalue = [1, 0, 0, 0, 0, 0, 0, 0, 0, 0, 0]"] ;
646 -> 654 ;
655 [label="gini = 0.5\nsamples = 2\nvalue = [1, 1, 0, 0, 0, 0, 0, 0, 0, 0, 0]"] ;
645 -> 655 ;
656 [label="x[6] <= 0.5\ngini = 0.784\nsamples = 18\nvalue = [4, 1, 0, 0, 2, 3, 0, 0, 2, 0, 6]"] ;
596 -> 656 ;
657 [label="x[9] <= 0.5\ngini = 0.775\nsamples = 17\nvalue = [4, 1, 0, 0, 2, 2, 0, 0, 2, 0, 6]"] ;
656 -> 657 ;
658 [label="x[4] <= 0.5\ngini = 0.773\nsamples = 15\nvalue = [4, 1, 0, 0, 1, 2, 0, 0, 2, 0, 5]"] ;
657 -> 658 ;
659 [label="x[10] <= 0.5\ngini = 0.793\nsamples = 13\nvalue = [3, 1, 0, 0, 1, 2, 0, 0, 2, 0, 4]"] ;
658 -> 659 ;
660 [label="gini = 0.8\nsamples = 10\nvalue = [2, 1, 0, 0, 1, 1, 0, 0, 2, 0, 3]"] ;
659 -> 660 ;
661 [label="gini = 0.667\nsamples = 3\nvalue = [1, 0, 0, 0, 0, 1, 0, 0, 0, 0, 1]"] ;
659 -> 661 ;
662 [label="gini = 0.5\nsamples = 2\nvalue = [1, 0, 0, 0, 0, 0, 0, 0, 0, 0, 1]"] ;
658 -> 662 ;
663 [label="gini = 0.5\nsamples = 2\nvalue = [0, 0, 0, 0, 1, 0, 0, 0, 0, 0, 1]"] ;
657 -> 663 ;
664 [label="gini = 0.0\nsamples = 1\nvalue = [0, 0, 0, 0, 0, 1, 0, 0, 0, 0, 0]"] ;
656 -> 664 ;
665 [label="x[4] <= 0.5\ngini = 0.773\nsamples = 64\nvalue = [15, 13, 0, 0, 1, 19, 0, 0, 13, 1, 2]"] ;
595 -> 665 ;
666 [label="x[9] <= 0.5\ngini = 0.744\nsamples = 53\nvalue = [14, 6, 0, 0, 1, 19, 0, 0, 11, 0, 2]"] ;
665 -> 666 ;
667 [label="x[13] <= 0.5\ngini = 0.729\nsamples = 51\nvalue = [14, 5, 0, 0, 1, 19, 0, 0, 11, 0, 1]"] ;
666 -> 667 ;
668 [label="x[17] <= 0.5\ngini = 0.745\nsamples = 45\nvalue = [12, 5, 0, 0, 1, 15, 0, 0, 11, 0, 1]"] ;
667 -> 668 ;
669 [label="x[8] <= 0.5\ngini = 0.738\nsamples = 43\nvalue = [11, 4, 0, 0, 1, 15, 0, 0, 11, 0, 1]"] ;
668 -> 669 ;
670 [label="x[22] <= 0.5\ngini = 0.737\nsamples = 42\nvalue = [10, 4, 0, 0, 1, 15, 0, 0, 11, 0, 1]"] ;
669 -> 670 ;
671 [label="x[6] <= 0.5\ngini = 0.735\nsamples = 41\nvalue = [9, 4, 0, 0, 1, 15, 0, 0, 11, 0, 1]"] ;
670 -> 671 ;
672 [label="x[21] <= 0.5\ngini = 0.729\nsamples = 37\nvalue = [8, 4, 0, 0, 0, 13, 0, 0, 11, 0, 1]"] ;
671 -> 672 ;
673 [label="gini = 0.733\nsamples = 36\nvalue = [8, 4, 0, 0, 0, 12, 0, 0, 11, 0, 1]"] ;
672 -> 673 ;
674 [label="gini = 0.0\nsamples = 1\nvalue = [0, 0, 0, 0, 0, 1, 0, 0, 0, 0, 0]"] ;
672 -> 674 ;
675 [label="x[10] <= 0.5\ngini = 0.625\nsamples = 4\nvalue = [1, 0, 0, 0, 1, 2, 0, 0, 0, 0, 0]"] ;
671 -> 675 ;
676 [label="gini = 0.5\nsamples = 2\nvalue = [1, 0, 0, 0, 0, 1, 0, 0, 0, 0, 0]"] ;
675 -> 676 ;
677 [label="gini = 0.5\nsamples = 2\nvalue = [0, 0, 0, 0, 1, 1, 0, 0, 0, 0, 0]"] ;
675 -> 677 ;
678 [label="gini = 0.0\nsamples = 1\nvalue = [1, 0, 0, 0, 0, 0, 0, 0, 0, 0, 0]"] ;
670 -> 678 ;
679 [label="gini = 0.0\nsamples = 1\nvalue = [1, 0, 0, 0, 0, 0, 0, 0, 0, 0, 0]"] ;
669 -> 679 ;
680 [label="x[8] <= 0.5\ngini = 0.5\nsamples = 2\nvalue = [1, 1, 0, 0, 0, 0, 0, 0, 0, 0, 0]"] ;
668 -> 680 ;
681 [label="gini = 0.0\nsamples = 1\nvalue = [1, 0, 0, 0, 0, 0, 0, 0, 0, 0, 0]"] ;
680 -> 681 ;
682 [label="gini = 0.0\nsamples = 1\nvalue = [0, 1, 0, 0, 0, 0, 0, 0, 0, 0, 0]"] ;
680 -> 682 ;
683 [label="x[10] <= 0.5\ngini = 0.444\nsamples = 6\nvalue = [2, 0, 0, 0, 0, 4, 0, 0, 0, 0, 0]"] ;
667 -> 683 ;
684 [label="gini = 0.0\nsamples = 4\nvalue = [0, 0, 0, 0, 0, 4, 0, 0, 0, 0, 0]"] ;
683 -> 684 ;
685 [label="gini = 0.0\nsamples = 2\nvalue = [2, 0, 0, 0, 0, 0, 0, 0, 0, 0, 0]"] ;
683 -> 685 ;
686 [label="x[8] <= 0.5\ngini = 0.5\nsamples = 2\nvalue = [0, 1, 0, 0, 0, 0, 0, 0, 0, 0, 1]"] ;
666 -> 686 ;
687 [label="gini = 0.0\nsamples = 1\nvalue = [0, 0, 0, 0, 0, 0, 0, 0, 0, 0, 1]"] ;
686 -> 687 ;
688 [label="gini = 0.0\nsamples = 1\nvalue = [0, 1, 0, 0, 0, 0, 0, 0, 0, 0, 0]"] ;
686 -> 688 ;
689 [label="x[8] <= 0.5\ngini = 0.545\nsamples = 11\nvalue = [1, 7, 0, 0, 0, 0, 0, 0, 2, 1, 0]"] ;
665 -> 689 ;
690 [label="x[22] <= 0.5\ngini = 0.46\nsamples = 10\nvalue = [1, 7, 0, 0, 0, 0, 0, 0, 2, 0, 0]"] ;
689 -> 690 ;
691 [label="x[11] <= 0.5\ngini = 0.494\nsamples = 9\nvalue = [1, 6, 0, 0, 0, 0, 0, 0, 2, 0, 0]"] ;
690 -> 691 ;
692 [label="x[20] <= 0.5\ngini = 0.531\nsamples = 8\nvalue = [1, 5, 0, 0, 0, 0, 0, 0, 2, 0, 0]"] ;
691 -> 692 ;
693 [label="gini = 0.571\nsamples = 7\nvalue = [1, 4, 0, 0, 0, 0, 0, 0, 2, 0, 0]"] ;
692 -> 693 ;
694 [label="gini = 0.0\nsamples = 1\nvalue = [0, 1, 0, 0, 0, 0, 0, 0, 0, 0, 0]"] ;
692 -> 694 ;
695 [label="gini = 0.0\nsamples = 1\nvalue = [0, 1, 0, 0, 0, 0, 0, 0, 0, 0, 0]"] ;
691 -> 695 ;
696 [label="gini = 0.0\nsamples = 1\nvalue = [0, 1, 0, 0, 0, 0, 0, 0, 0, 0, 0]"] ;
690 -> 696 ;
697 [label="gini = 0.0\nsamples = 1\nvalue = [0, 0, 0, 0, 0, 0, 0, 0, 0, 1, 0]"] ;
689 -> 697 ;
698 [label="x[17] <= 0.5\ngini = 0.717\nsamples = 128\nvalue = [42, 0, 0, 1, 1, 46, 26, 0, 0, 6, 6]"] ;
594 -> 698 ;
699 [label="x[22] <= 0.5\ngini = 0.714\nsamples = 125\nvalue = [40, 0, 0, 1, 0, 46, 26, 0, 0, 6, 6]"] ;
698 -> 699 ;
700 [label="x[14] <= 0.5\ngini = 0.71\nsamples = 124\nvalue = [40, 0, 0, 1, 0, 46, 26, 0, 0, 6, 5]"] ;
699 -> 700 ;
701 [label="x[18] <= 0.5\ngini = 0.711\nsamples = 123\nvalue = [39, 0, 0, 1, 0, 46, 26, 0, 0, 6, 5]"] ;
700 -> 701 ;
702 [label="x[21] <= 0.5\ngini = 0.707\nsamples = 120\nvalue = [39, 0, 0, 1, 0, 45, 25, 0, 0, 5, 5]"] ;
701 -> 702 ;
703 [label="x[4] <= 0.5\ngini = 0.708\nsamples = 119\nvalue = [39, 0, 0, 1, 0, 44, 25, 0, 0, 5, 5]"] ;
702 -> 703 ;
704 [label="x[9] <= 0.5\ngini = 0.711\nsamples = 110\nvalue = [34, 0, 0, 1, 0, 42, 23, 0, 0, 5, 5]"] ;
703 -> 704 ;
705 [label="x[7] <= 0.5\ngini = 0.7\nsamples = 90\nvalue = [29, 0, 0, 1, 0, 36, 16, 0, 0, 5, 3]"] ;
704 -> 705 ;
706 [label="x[8] <= 0.5\ngini = 0.703\nsamples = 87\nvalue = [27, 0, 0, 1, 0, 35, 16, 0, 0, 5, 3]"] ;
705 -> 706 ;
707 [label="gini = 0.7\nsamples = 84\nvalue = [26, 0, 0, 1, 0, 34, 16, 0, 0, 5, 2]"] ;
706 -> 707 ;
708 [label="gini = 0.667\nsamples = 3\nvalue = [1, 0, 0, 0, 0, 1, 0, 0, 0, 0, 1]"] ;
706 -> 708 ;
709 [label="x[6] <= 0.5\ngini = 0.444\nsamples = 3\nvalue = [2, 0, 0, 0, 0, 1, 0, 0, 0, 0, 0]"] ;
705 -> 709 ;
710 [label="gini = 0.5\nsamples = 2\nvalue = [1, 0, 0, 0, 0, 1, 0, 0, 0, 0, 0]"] ;
709 -> 710 ;
711 [label="gini = 0.0\nsamples = 1\nvalue = [1, 0, 0, 0, 0, 0, 0, 0, 0, 0, 0]"] ;
709 -> 711 ;
712 [label="x[10] <= 0.5\ngini = 0.715\nsamples = 20\nvalue = [5, 0, 0, 0, 0, 6, 7, 0, 0, 0, 2]"] ;
704 -> 712 ;
713 [label="x[13] <= 0.5\ngini = 0.698\nsamples = 18\nvalue = [3, 0, 0, 0, 0, 6, 7, 0, 0, 0, 2]"] ;
712 -> 713 ;
714 [label="gini = 0.711\nsamples = 16\nvalue = [3, 0, 0, 0, 0, 6, 5, 0, 0, 0, 2]"] ;
713 -> 714 ;
715 [label="gini = 0.0\nsamples = 2\nvalue = [0, 0, 0, 0, 0, 0, 2, 0, 0, 0, 0]"] ;
713 -> 715 ;
716 [label="gini = 0.0\nsamples = 2\nvalue = [2, 0, 0, 0, 0, 0, 0, 0, 0, 0, 0]"] ;
712 -> 716 ;
717 [label="x[7] <= 0.5\ngini = 0.593\nsamples = 9\nvalue = [5, 0, 0, 0, 0, 2, 2, 0, 0, 0, 0]"] ;
703 -> 717 ;
718 [label="x[9] <= 0.5\ngini = 0.449\nsamples = 7\nvalue = [5, 0, 0, 0, 0, 1, 1, 0, 0, 0, 0]"] ;
717 -> 718 ;
719 [label="x[10] <= 0.5\ngini = 0.375\nsamples = 4\nvalue = [3, 0, 0, 0, 0, 0, 1, 0, 0, 0, 0]"] ;
718 -> 719 ;
720 [label="gini = 0.444\nsamples = 3\nvalue = [2, 0, 0, 0, 0, 0, 1, 0, 0, 0, 0]"] ;
719 -> 720 ;
721 [label="gini = 0.0\nsamples = 1\nvalue = [1, 0, 0, 0, 0, 0, 0, 0, 0, 0, 0]"] ;
719 -> 721 ;
722 [label="x[6] <= 0.5\ngini = 0.444\nsamples = 3\nvalue = [2, 0, 0, 0, 0, 1, 0, 0, 0, 0, 0]"] ;
718 -> 722 ;
723 [label="gini = 0.5\nsamples = 2\nvalue = [1, 0, 0, 0, 0, 1, 0, 0, 0, 0, 0]"] ;
722 -> 723 ;
724 [label="gini = 0.0\nsamples = 1\nvalue = [1, 0, 0, 0, 0, 0, 0, 0, 0, 0, 0]"] ;
722 -> 724 ;
725 [label="gini = 0.5\nsamples = 2\nvalue = [0, 0, 0, 0, 0, 1, 1, 0, 0, 0, 0]"] ;
717 -> 725 ;
726 [label="gini = 0.0\nsamples = 1\nvalue = [0, 0, 0, 0, 0, 1, 0, 0, 0, 0, 0]"] ;
702 -> 726 ;
727 [label="x[4] <= 0.5\ngini = 0.667\nsamples = 3\nvalue = [0, 0, 0, 0, 0, 1, 1, 0, 0, 1, 0]"] ;
701 -> 727 ;
728 [label="gini = 0.5\nsamples = 2\nvalue = [0, 0, 0, 0, 0, 0, 1, 0, 0, 1, 0]"] ;
727 -> 728 ;
729 [label="gini = 0.0\nsamples = 1\nvalue = [0, 0, 0, 0, 0, 1, 0, 0, 0, 0, 0]"] ;
727 -> 729 ;
730 [label="gini = 0.0\nsamples = 1\nvalue = [1, 0, 0, 0, 0, 0, 0, 0, 0, 0, 0]"] ;
700 -> 730 ;
731 [label="gini = 0.0\nsamples = 1\nvalue = [0, 0, 0, 0, 0, 0, 0, 0, 0, 0, 1]"] ;
699 -> 731 ;
732 [label="x[10] <= 0.5\ngini = 0.444\nsamples = 3\nvalue = [2, 0, 0, 0, 1, 0, 0, 0, 0, 0, 0]"] ;
698 -> 732 ;
733 [label="gini = 0.0\nsamples = 2\nvalue = [2, 0, 0, 0, 0, 0, 0, 0, 0, 0, 0]"] ;
732 -> 733 ;
734 [label="gini = 0.0\nsamples = 1\nvalue = [0, 0, 0, 0, 1, 0, 0, 0, 0, 0, 0]"] ;
732 -> 734 ;
735 [label="x[21] <= 0.5\ngini = 0.584\nsamples = 33\nvalue = [9, 19, 0, 0, 0, 3, 1, 0, 0, 1, 0]"] ;
593 -> 735 ;
736 [label="x[4] <= 0.5\ngini = 0.651\nsamples = 26\nvalue = [9, 12, 0, 0, 0, 3, 1, 0, 0, 1, 0]"] ;
735 -> 736 ;
737 [label="x[10] <= 0.5\ngini = 0.59\nsamples = 20\nvalue = [9, 9, 0, 0, 0, 0, 1, 0, 0, 1, 0]"] ;
736 -> 737 ;
738 [label="x[9] <= 0.5\ngini = 0.588\nsamples = 17\nvalue = [9, 6, 0, 0, 0, 0, 1, 0, 0, 1, 0]"] ;
737 -> 738 ;
739 [label="x[1] <= 0.5\ngini = 0.613\nsamples = 15\nvalue = [7, 6, 0, 0, 0, 0, 1, 0, 0, 1, 0]"] ;
738 -> 739 ;
740 [label="x[11] <= 0.5\ngini = 0.556\nsamples = 13\nvalue = [7, 5, 0, 0, 0, 0, 0, 0, 0, 1, 0]"] ;
739 -> 740 ;
741 [label="x[18] <= 0.5\ngini = 0.569\nsamples = 12\nvalue = [6, 5, 0, 0, 0, 0, 0, 0, 0, 1, 0]"] ;
740 -> 741 ;
742 [label="x[6] <= 0.5\ngini = 0.579\nsamples = 11\nvalue = [5, 5, 0, 0, 0, 0, 0, 0, 0, 1, 0]"] ;
741 -> 742 ;
743 [label="x[13] <= 0.5\ngini = 0.58\nsamples = 10\nvalue = [4, 5, 0, 0, 0, 0, 0, 0, 0, 1, 0]"] ;
742 -> 743 ;
744 [label="x[8] <= 0.5\ngini = 0.568\nsamples = 9\nvalue = [3, 5, 0, 0, 0, 0, 0, 0, 0, 1, 0]"] ;
743 -> 744 ;
745 [label="gini = 0.571\nsamples = 7\nvalue = [2, 4, 0, 0, 0, 0, 0, 0, 0, 1, 0]"] ;
744 -> 745 ;
746 [label="gini = 0.5\nsamples = 2\nvalue = [1, 1, 0, 0, 0, 0, 0, 0, 0, 0, 0]"] ;
744 -> 746 ;
747 [label="gini = 0.0\nsamples = 1\nvalue = [1, 0, 0, 0, 0, 0, 0, 0, 0, 0, 0]"] ;
743 -> 747 ;
748 [label="gini = 0.0\nsamples = 1\nvalue = [1, 0, 0, 0, 0, 0, 0, 0, 0, 0, 0]"] ;
742 -> 748 ;
749 [label="gini = 0.0\nsamples = 1\nvalue = [1, 0, 0, 0, 0, 0, 0, 0, 0, 0, 0]"] ;
741 -> 749 ;
750 [label="gini = 0.0\nsamples = 1\nvalue = [1, 0, 0, 0, 0, 0, 0, 0, 0, 0, 0]"] ;
740 -> 750 ;
751 [label="x[6] <= 0.5\ngini = 0.5\nsamples = 2\nvalue = [0, 1, 0, 0, 0, 0, 1, 0, 0, 0, 0]"] ;
739 -> 751 ;
752 [label="gini = 0.0\nsamples = 1\nvalue = [0, 0, 0, 0, 0, 0, 1, 0, 0, 0, 0]"] ;
751 -> 752 ;
753 [label="gini = 0.0\nsamples = 1\nvalue = [0, 1, 0, 0, 0, 0, 0, 0, 0, 0, 0]"] ;
751 -> 753 ;
754 [label="gini = 0.0\nsamples = 2\nvalue = [2, 0, 0, 0, 0, 0, 0, 0, 0, 0, 0]"] ;
738 -> 754 ;
755 [label="gini = 0.0\nsamples = 3\nvalue = [0, 3, 0, 0, 0, 0, 0, 0, 0, 0, 0]"] ;
737 -> 755 ;
756 [label="x[7] <= 0.5\ngini = 0.5\nsamples = 6\nvalue = [0, 3, 0, 0, 0, 3, 0, 0, 0, 0, 0]"] ;
736 -> 756 ;
757 [label="x[8] <= 0.5\ngini = 0.375\nsamples = 4\nvalue = [0, 1, 0, 0, 0, 3, 0, 0, 0, 0, 0]"] ;
756 -> 757 ;
758 [label="x[10] <= 0.5\ngini = 0.5\nsamples = 2\nvalue = [0, 1, 0, 0, 0, 1, 0, 0, 0, 0, 0]"] ;
757 -> 758 ;
759 [label="gini = 0.0\nsamples = 1\nvalue = [0, 1, 0, 0, 0, 0, 0, 0, 0, 0, 0]"] ;
758 -> 759 ;
760 [label="gini = 0.0\nsamples = 1\nvalue = [0, 0, 0, 0, 0, 1, 0, 0, 0, 0, 0]"] ;
758 -> 760 ;
761 [label="gini = 0.0\nsamples = 2\nvalue = [0, 0, 0, 0, 0, 2, 0, 0, 0, 0, 0]"] ;
757 -> 761 ;
762 [label="gini = 0.0\nsamples = 2\nvalue = [0, 2, 0, 0, 0, 0, 0, 0, 0, 0, 0]"] ;
756 -> 762 ;
763 [label="gini = 0.0\nsamples = 7\nvalue = [0, 7, 0, 0, 0, 0, 0, 0, 0, 0, 0]"] ;
735 -> 763 ;
764 [label="x[14] <= 0.5\ngini = 0.812\nsamples = 270\nvalue = [84, 50, 1, 0, 13, 39, 3, 10, 45, 9, 16]"] ;
592 -> 764 ;
765 [label="x[15] <= 0.5\ngini = 0.806\nsamples = 250\nvalue = [84, 31, 1, 0, 12, 39, 3, 10, 45, 9, 16]"] ;
764 -> 765 ;
766 [label="x[9] <= 0.5\ngini = 0.801\nsamples = 236\nvalue = [82, 22, 1, 0, 12, 38, 3, 10, 43, 9, 16]"] ;
765 -> 766 ;
767 [label="x[7] <= 0.5\ngini = 0.792\nsamples = 221\nvalue = [77, 22, 1, 0, 11, 38, 0, 10, 43, 5, 14]"] ;
766 -> 767 ;
768 [label="x[21] <= 0.5\ngini = 0.802\nsamples = 157\nvalue = [52, 16, 1, 0, 9, 33, 0, 6, 23, 4, 13]"] ;
767 -> 768 ;
769 [label="x[8] <= 0.5\ngini = 0.799\nsamples = 155\nvalue = [52, 14, 1, 0, 9, 33, 0, 6, 23, 4, 13]"] ;
768 -> 769 ;
770 [label="x[13] <= 0.5\ngini = 0.794\nsamples = 141\nvalue = [47, 12, 1, 0, 7, 32, 0, 6, 23, 4, 9]"] ;
769 -> 770 ;
771 [label="x[18] <= 0.5\ngini = 0.788\nsamples = 123\nvalue = [42, 8, 1, 0, 7, 27, 0, 5, 23, 4, 6]"] ;
770 -> 771 ;
772 [label="x[10] <= 0.5\ngini = 0.782\nsamples = 121\nvalue = [42, 7, 1, 0, 7, 27, 0, 5, 23, 3, 6]"] ;
771 -> 772 ;
773 [label="x[1] <= 0.5\ngini = 0.769\nsamples = 106\nvalue = [39, 6, 1, 0, 3, 23, 0, 5, 21, 3, 5]"] ;
772 -> 773 ;
774 [label="x[20] <= 0.5\ngini = 0.756\nsamples = 91\nvalue = [35, 5, 1, 0, 3, 18, 0, 5, 20, 2, 2]"] ;
773 -> 774 ;
775 [label="gini = 0.758\nsamples = 88\nvalue = [33, 4, 1, 0, 3, 18, 0, 5, 20, 2, 2]"] ;
774 -> 775 ;
776 [label="gini = 0.444\nsamples = 3\nvalue = [2, 1, 0, 0, 0, 0, 0, 0, 0, 0, 0]"] ;
774 -> 776 ;
777 [label="x[4] <= 0.5\ngini = 0.764\nsamples = 15\nvalue = [4, 1, 0, 0, 0, 5, 0, 0, 1, 1, 3]"] ;
773 -> 777 ;
778 [label="gini = 0.757\nsamples = 13\nvalue = [2, 1, 0, 0, 0, 5, 0, 0, 1, 1, 3]"] ;
777 -> 778 ;
779 [label="gini = 0.0\nsamples = 2\nvalue = [2, 0, 0, 0, 0, 0, 0, 0, 0, 0, 0]"] ;
777 -> 779 ;
780 [label="x[4] <= 0.5\ngini = 0.791\nsamples = 15\nvalue = [3, 1, 0, 0, 4, 4, 0, 0, 2, 0, 1]"] ;
772 -> 780 ;
781 [label="x[6] <= 0.5\ngini = 0.765\nsamples = 14\nvalue = [3, 0, 0, 0, 4, 4, 0, 0, 2, 0, 1]"] ;
780 -> 781 ;
782 [label="gini = 0.757\nsamples = 13\nvalue = [2, 0, 0, 0, 4, 4, 0, 0, 2, 0, 1]"] ;
781 -> 782 ;
783 [label="gini = 0.0\nsamples = 1\nvalue = [1, 0, 0, 0, 0, 0, 0, 0, 0, 0, 0]"] ;
781 -> 783 ;
784 [label="gini = 0.0\nsamples = 1\nvalue = [0, 1, 0, 0, 0, 0, 0, 0, 0, 0, 0]"] ;
780 -> 784 ;
785 [label="x[6] <= 0.5\ngini = 0.5\nsamples = 2\nvalue = [0, 1, 0, 0, 0, 0, 0, 0, 0, 1, 0]"] ;
771 -> 785 ;
786 [label="gini = 0.0\nsamples = 1\nvalue = [0, 1, 0, 0, 0, 0, 0, 0, 0, 0, 0]"] ;
785 -> 786 ;
787 [label="gini = 0.0\nsamples = 1\nvalue = [0, 0, 0, 0, 0, 0, 0, 0, 0, 1, 0]"] ;
785 -> 787 ;
788 [label="x[1] <= 0.5\ngini = 0.765\nsamples = 18\nvalue = [5, 4, 0, 0, 0, 5, 0, 1, 0, 0, 3]"] ;
770 -> 788 ;
789 [label="x[17] <= 0.5\ngini = 0.756\nsamples = 15\nvalue = [3, 4, 0, 0, 0, 5, 0, 1, 0, 0, 2]"] ;
788 -> 789 ;
790 [label="x[10] <= 0.5\ngini = 0.755\nsamples = 14\nvalue = [3, 3, 0, 0, 0, 5, 0, 1, 0, 0, 2]"] ;
789 -> 790 ;
791 [label="x[4] <= 0.5\ngini = 0.769\nsamples = 13\nvalue = [3, 3, 0, 0, 0, 4, 0, 1, 0, 0, 2]"] ;
790 -> 791 ;
792 [label="gini = 0.741\nsamples = 9\nvalue = [2, 2, 0, 0, 0, 3, 0, 0, 0, 0, 2]"] ;
791 -> 792 ;
793 [label="gini = 0.75\nsamples = 4\nvalue = [1, 1, 0, 0, 0, 1, 0, 1, 0, 0, 0]"] ;
791 -> 793 ;
794 [label="gini = 0.0\nsamples = 1\nvalue = [0, 0, 0, 0, 0, 1, 0, 0, 0, 0, 0]"] ;
790 -> 794 ;
795 [label="gini = 0.0\nsamples = 1\nvalue = [0, 1, 0, 0, 0, 0, 0, 0, 0, 0, 0]"] ;
789 -> 795 ;
796 [label="x[6] <= 0.5\ngini = 0.444\nsamples = 3\nvalue = [2, 0, 0, 0, 0, 0, 0, 0, 0, 0, 1]"] ;
788 -> 796 ;
797 [label="gini = 0.0\nsamples = 2\nvalue = [2, 0, 0, 0, 0, 0, 0, 0, 0, 0, 0]"] ;
796 -> 797 ;
798 [label="gini = 0.0\nsamples = 1\nvalue = [0, 0, 0, 0, 0, 0, 0, 0, 0, 0, 1]"] ;
796 -> 798 ;
799 [label="x[1] <= 0.5\ngini = 0.745\nsamples = 14\nvalue = [5, 2, 0, 0, 2, 1, 0, 0, 0, 0, 4]"] ;
769 -> 799 ;
800 [label="x[17] <= 0.5\ngini = 0.736\nsamples = 12\nvalue = [5, 2, 0, 0, 2, 1, 0, 0, 0, 0, 2]"] ;
799 -> 800 ;
801 [label="x[4] <= 0.5\ngini = 0.78\nsamples = 10\nvalue = [3, 2, 0, 0, 2, 1, 0, 0, 0, 0, 2]"] ;
800 -> 801 ;
802 [label="x[10] <= 0.5\ngini = 0.694\nsamples = 7\nvalue = [3, 2, 0, 0, 1, 0, 0, 0, 0, 0, 1]"] ;
801 -> 802 ;
803 [label="gini = 0.722\nsamples = 6\nvalue = [2, 2, 0, 0, 1, 0, 0, 0, 0, 0, 1]"] ;
802 -> 803 ;
804 [label="gini = 0.0\nsamples = 1\nvalue = [1, 0, 0, 0, 0, 0, 0, 0, 0, 0, 0]"] ;
802 -> 804 ;
805 [label="x[10] <= 0.5\ngini = 0.667\nsamples = 3\nvalue = [0, 0, 0, 0, 1, 1, 0, 0, 0, 0, 1]"] ;
801 -> 805 ;
806 [label="gini = 0.5\nsamples = 2\nvalue = [0, 0, 0, 0, 1, 1, 0, 0, 0, 0, 0]"] ;
805 -> 806 ;
807 [label="gini = 0.0\nsamples = 1\nvalue = [0, 0, 0, 0, 0, 0, 0, 0, 0, 0, 1]"] ;
805 -> 807 ;
808 [label="gini = 0.0\nsamples = 2\nvalue = [2, 0, 0, 0, 0, 0, 0, 0, 0, 0, 0]"] ;
800 -> 808 ;
809 [label="gini = 0.0\nsamples = 2\nvalue = [0, 0, 0, 0, 0, 0, 0, 0, 0, 0, 2]"] ;
799 -> 809 ;
810 [label="gini = 0.0\nsamples = 2\nvalue = [0, 2, 0, 0, 0, 0, 0, 0, 0, 0, 0]"] ;
768 -> 810 ;
811 [label="x[6] <= 0.5\ngini = 0.729\nsamples = 64\nvalue = [25, 6, 0, 0, 2, 5, 0, 4, 20, 1, 1]"] ;
767 -> 811 ;
812 [label="x[19] <= 0.5\ngini = 0.714\nsamples = 56\nvalue = [21, 6, 0, 0, 1, 3, 0, 3, 20, 1, 1]"] ;
811 -> 812 ;
813 [label="x[11] <= 0.5\ngini = 0.705\nsamples = 55\nvalue = [21, 6, 0, 0, 1, 2, 0, 3, 20, 1, 1]"] ;
812 -> 813 ;
814 [label="x[4] <= 0.5\ngini = 0.698\nsamples = 54\nvalue = [21, 5, 0, 0, 1, 2, 0, 3, 20, 1, 1]"] ;
813 -> 814 ;
815 [label="x[1] <= 0.5\ngini = 0.698\nsamples = 49\nvalue = [18, 5, 0, 0, 1, 2, 0, 3, 19, 0, 1]"] ;
814 -> 815 ;
816 [label="x[20] <= 0.5\ngini = 0.716\nsamples = 43\nvalue = [14, 5, 0, 0, 1, 2, 0, 3, 17, 0, 1]"] ;
815 -> 816 ;
817 [label="x[10] <= 0.5\ngini = 0.718\nsamples = 42\nvalue = [13, 5, 0, 0, 1, 2, 0, 3, 17, 0, 1]"] ;
816 -> 817 ;
818 [label="gini = 0.717\nsamples = 39\nvalue = [13, 5, 0, 0, 1, 1, 0, 3, 15, 0, 1]"] ;
817 -> 818 ;
819 [label="gini = 0.444\nsamples = 3\nvalue = [0, 0, 0, 0, 0, 1, 0, 0, 2, 0, 0]"] ;
817 -> 819 ;
820 [label="gini = 0.0\nsamples = 1\nvalue = [1, 0, 0, 0, 0, 0, 0, 0, 0, 0, 0]"] ;
816 -> 820 ;
821 [label="x[10] <= 0.5\ngini = 0.444\nsamples = 6\nvalue = [4, 0, 0, 0, 0, 0, 0, 0, 2, 0, 0]"] ;
815 -> 821 ;
822 [label="gini = 0.48\nsamples = 5\nvalue = [3, 0, 0, 0, 0, 0, 0, 0, 2, 0, 0]"] ;
821 -> 822 ;
823 [label="gini = 0.0\nsamples = 1\nvalue = [1, 0, 0, 0, 0, 0, 0, 0, 0, 0, 0]"] ;
821 -> 823 ;
824 [label="x[1] <= 0.5\ngini = 0.56\nsamples = 5\nvalue = [3, 0, 0, 0, 0, 0, 0, 0, 1, 1, 0]"] ;
814 -> 824 ;
825 [label="x[10] <= 0.5\ngini = 0.375\nsamples = 4\nvalue = [3, 0, 0, 0, 0, 0, 0, 0, 1, 0, 0]"] ;
824 -> 825 ;
826 [label="gini = 0.444\nsamples = 3\nvalue = [2, 0, 0, 0, 0, 0, 0, 0, 1, 0, 0]"] ;
825 -> 826 ;
827 [label="gini = 0.0\nsamples = 1\nvalue = [1, 0, 0, 0, 0, 0, 0, 0, 0, 0, 0]"] ;
825 -> 827 ;
828 [label="gini = 0.0\nsamples = 1\nvalue = [0, 0, 0, 0, 0, 0, 0, 0, 0, 1, 0]"] ;
824 -> 828 ;
829 [label="gini = 0.0\nsamples = 1\nvalue = [0, 1, 0, 0, 0, 0, 0, 0, 0, 0, 0]"] ;
813 -> 829 ;
830 [label="gini = 0.0\nsamples = 1\nvalue = [0, 0, 0, 0, 0, 1, 0, 0, 0, 0, 0]"] ;
812 -> 830 ;
831 [label="x[8] <= 0.5\ngini = 0.656\nsamples = 8\nvalue = [4, 0, 0, 0, 1, 2, 0, 1, 0, 0, 0]"] ;
811 -> 831 ;
832 [label="x[18] <= 0.5\ngini = 0.571\nsamples = 7\nvalue = [4, 0, 0, 0, 0, 2, 0, 1, 0, 0, 0]"] ;
831 -> 832 ;
833 [label="x[1] <= 0.5\ngini = 0.5\nsamples = 6\nvalue = [4, 0, 0, 0, 0, 1, 0, 1, 0, 0, 0]"] ;
832 -> 833 ;
834 [label="x[13] <= 0.5\ngini = 0.444\nsamples = 3\nvalue = [2, 0, 0, 0, 0, 0, 0, 1, 0, 0, 0]"] ;
833 -> 834 ;
835 [label="gini = 0.5\nsamples = 2\nvalue = [1, 0, 0, 0, 0, 0, 0, 1, 0, 0, 0]"] ;
834 -> 835 ;
836 [label="gini = 0.0\nsamples = 1\nvalue = [1, 0, 0, 0, 0, 0, 0, 0, 0, 0, 0]"] ;
834 -> 836 ;
837 [label="gini = 0.444\nsamples = 3\nvalue = [2, 0, 0, 0, 0, 1, 0, 0, 0, 0, 0]"] ;
833 -> 837 ;
838 [label="gini = 0.0\nsamples = 1\nvalue = [0, 0, 0, 0, 0, 1, 0, 0, 0, 0, 0]"] ;
832 -> 838 ;
839 [label="gini = 0.0\nsamples = 1\nvalue = [0, 0, 0, 0, 1, 0, 0, 0, 0, 0, 0]"] ;
831 -> 839 ;
840 [label="x[6] <= 0.5\ngini = 0.756\nsamples = 15\nvalue = [5, 0, 0, 0, 1, 0, 3, 0, 0, 4, 2]"] ;
766 -> 840 ;
841 [label="x[10] <= 0.5\ngini = 0.691\nsamples = 9\nvalue = [4, 0, 0, 0, 0, 0, 2, 0, 0, 1, 2]"] ;
840 -> 841 ;
842 [label="x[1] <= 0.5\ngini = 0.656\nsamples = 8\nvalue = [4, 0, 0, 0, 0, 0, 2, 0, 0, 1, 1]"] ;
841 -> 842 ;
843 [label="x[8] <= 0.5\ngini = 0.444\nsamples = 3\nvalue = [2, 0, 0, 0, 0, 0, 0, 0, 0, 0, 1]"] ;
842 -> 843 ;
844 [label="x[13] <= 0.5\ngini = 0.5\nsamples = 2\nvalue = [1, 0, 0, 0, 0, 0, 0, 0, 0, 0, 1]"] ;
843 -> 844 ;
845 [label="gini = 0.0\nsamples = 1\nvalue = [0, 0, 0, 0, 0, 0, 0, 0, 0, 0, 1]"] ;
844 -> 845 ;
846 [label="gini = 0.0\nsamples = 1\nvalue = [1, 0, 0, 0, 0, 0, 0, 0, 0, 0, 0]"] ;
844 -> 846 ;
847 [label="gini = 0.0\nsamples = 1\nvalue = [1, 0, 0, 0, 0, 0, 0, 0, 0, 0, 0]"] ;
843 -> 847 ;
848 [label="x[13] <= 0.5\ngini = 0.64\nsamples = 5\nvalue = [2, 0, 0, 0, 0, 0, 2, 0, 0, 1, 0]"] ;
842 -> 848 ;
849 [label="x[7] <= 0.5\ngini = 0.667\nsamples = 3\nvalue = [1, 0, 0, 0, 0, 0, 1, 0, 0, 1, 0]"] ;
848 -> 849 ;
850 [label="gini = 0.0\nsamples = 1\nvalue = [0, 0, 0, 0, 0, 0, 0, 0, 0, 1, 0]"] ;
849 -> 850 ;
851 [label="x[8] <= 0.5\ngini = 0.5\nsamples = 2\nvalue = [1, 0, 0, 0, 0, 0, 1, 0, 0, 0, 0]"] ;
849 -> 851 ;
852 [label="gini = 0.0\nsamples = 1\nvalue = [1, 0, 0, 0, 0, 0, 0, 0, 0, 0, 0]"] ;
851 -> 852 ;
853 [label="gini = 0.0\nsamples = 1\nvalue = [0, 0, 0, 0, 0, 0, 1, 0, 0, 0, 0]"] ;
851 -> 853 ;
854 [label="x[8] <= 0.5\ngini = 0.5\nsamples = 2\nvalue = [1, 0, 0, 0, 0, 0, 1, 0, 0, 0, 0]"] ;
848 -> 854 ;
855 [label="gini = 0.0\nsamples = 1\nvalue = [0, 0, 0, 0, 0, 0, 1, 0, 0, 0, 0]"] ;
854 -> 855 ;
856 [label="gini = 0.0\nsamples = 1\nvalue = [1, 0, 0, 0, 0, 0, 0, 0, 0, 0, 0]"] ;
854 -> 856 ;
857 [label="gini = 0.0\nsamples = 1\nvalue = [0, 0, 0, 0, 0, 0, 0, 0, 0, 0, 1]"] ;
841 -> 857 ;
858 [label="x[18] <= 0.5\ngini = 0.667\nsamples = 6\nvalue = [1, 0, 0, 0, 1, 0, 1, 0, 0, 3, 0]"] ;
840 -> 858 ;
859 [label="x[8] <= 0.5\ngini = 0.56\nsamples = 5\nvalue = [1, 0, 0, 0, 1, 0, 0, 0, 0, 3, 0]"] ;
858 -> 859 ;
860 [label="x[13] <= 0.5\ngini = 0.375\nsamples = 4\nvalue = [1, 0, 0, 0, 0, 0, 0, 0, 0, 3, 0]"] ;
859 -> 860 ;
861 [label="gini = 0.0\nsamples = 2\nvalue = [0, 0, 0, 0, 0, 0, 0, 0, 0, 2, 0]"] ;
860 -> 861 ;
862 [label="x[10] <= 0.5\ngini = 0.5\nsamples = 2\nvalue = [1, 0, 0, 0, 0, 0, 0, 0, 0, 1, 0]"] ;
860 -> 862 ;
863 [label="gini = 0.0\nsamples = 1\nvalue = [1, 0, 0, 0, 0, 0, 0, 0, 0, 0, 0]"] ;
862 -> 863 ;
864 [label="gini = 0.0\nsamples = 1\nvalue = [0, 0, 0, 0, 0, 0, 0, 0, 0, 1, 0]"] ;
862 -> 864 ;
865 [label="gini = 0.0\nsamples = 1\nvalue = [0, 0, 0, 0, 1, 0, 0, 0, 0, 0, 0]"] ;
859 -> 865 ;
866 [label="gini = 0.0\nsamples = 1\nvalue = [0, 0, 0, 0, 0, 0, 1, 0, 0, 0, 0]"] ;
858 -> 866 ;
867 [label="x[17] <= 0.5\ngini = 0.541\nsamples = 14\nvalue = [2, 9, 0, 0, 0, 1, 0, 0, 2, 0, 0]"] ;
765 -> 867 ;
868 [label="x[10] <= 0.5\ngini = 0.43\nsamples = 11\nvalue = [2, 8, 0, 0, 0, 1, 0, 0, 0, 0, 0]"] ;
867 -> 868 ;
869 [label="x[1] <= 0.5\ngini = 0.34\nsamples = 10\nvalue = [1, 8, 0, 0, 0, 1, 0, 0, 0, 0, 0]"] ;
868 -> 869 ;
870 [label="x[6] <= 0.5\ngini = 0.219\nsamples = 8\nvalue = [0, 7, 0, 0, 0, 1, 0, 0, 0, 0, 0]"] ;
869 -> 870 ;
871 [label="gini = 0.0\nsamples = 5\nvalue = [0, 5, 0, 0, 0, 0, 0, 0, 0, 0, 0]"] ;
870 -> 871 ;
872 [label="x[21] <= 0.5\ngini = 0.444\nsamples = 3\nvalue = [0, 2, 0, 0, 0, 1, 0, 0, 0, 0, 0]"] ;
870 -> 872 ;
873 [label="x[13] <= 0.5\ngini = 0.5\nsamples = 2\nvalue = [0, 1, 0, 0, 0, 1, 0, 0, 0, 0, 0]"] ;
872 -> 873 ;
874 [label="gini = 0.0\nsamples = 1\nvalue = [0, 0, 0, 0, 0, 1, 0, 0, 0, 0, 0]"] ;
873 -> 874 ;
875 [label="gini = 0.0\nsamples = 1\nvalue = [0, 1, 0, 0, 0, 0, 0, 0, 0, 0, 0]"] ;
873 -> 875 ;
876 [label="gini = 0.0\nsamples = 1\nvalue = [0, 1, 0, 0, 0, 0, 0, 0, 0, 0, 0]"] ;
872 -> 876 ;
877 [label="x[8] <= 0.5\ngini = 0.5\nsamples = 2\nvalue = [1, 1, 0, 0, 0, 0, 0, 0, 0, 0, 0]"] ;
869 -> 877 ;
878 [label="gini = 0.0\nsamples = 1\nvalue = [1, 0, 0, 0, 0, 0, 0, 0, 0, 0, 0]"] ;
877 -> 878 ;
879 [label="gini = 0.0\nsamples = 1\nvalue = [0, 1, 0, 0, 0, 0, 0, 0, 0, 0, 0]"] ;
877 -> 879 ;
880 [label="gini = 0.0\nsamples = 1\nvalue = [1, 0, 0, 0, 0, 0, 0, 0, 0, 0, 0]"] ;
868 -> 880 ;
881 [label="x[21] <= 0.5\ngini = 0.444\nsamples = 3\nvalue = [0, 1, 0, 0, 0, 0, 0, 0, 2, 0, 0]"] ;
867 -> 881 ;
882 [label="gini = 0.0\nsamples = 2\nvalue = [0, 0, 0, 0, 0, 0, 0, 0, 2, 0, 0]"] ;
881 -> 882 ;
883 [label="gini = 0.0\nsamples = 1\nvalue = [0, 1, 0, 0, 0, 0, 0, 0, 0, 0, 0]"] ;
881 -> 883 ;
884 [label="x[8] <= 0.5\ngini = 0.095\nsamples = 20\nvalue = [0, 19, 0, 0, 1, 0, 0, 0, 0, 0, 0]"] ;
764 -> 884 ;
885 [label="x[4] <= 0.5\ngini = 0.198\nsamples = 9\nvalue = [0, 8, 0, 0, 1, 0, 0, 0, 0, 0, 0]"] ;
884 -> 885 ;
886 [label="x[7] <= 0.5\ngini = 0.32\nsamples = 5\nvalue = [0, 4, 0, 0, 1, 0, 0, 0, 0, 0, 0]"] ;
885 -> 886 ;
887 [label="x[9] <= 0.5\ngini = 0.5\nsamples = 2\nvalue = [0, 1, 0, 0, 1, 0, 0, 0, 0, 0, 0]"] ;
886 -> 887 ;
888 [label="gini = 0.0\nsamples = 1\nvalue = [0, 0, 0, 0, 1, 0, 0, 0, 0, 0, 0]"] ;
887 -> 888 ;
889 [label="gini = 0.0\nsamples = 1\nvalue = [0, 1, 0, 0, 0, 0, 0, 0, 0, 0, 0]"] ;
887 -> 889 ;
890 [label="gini = 0.0\nsamples = 3\nvalue = [0, 3, 0, 0, 0, 0, 0, 0, 0, 0, 0]"] ;
886 -> 890 ;
891 [label="gini = 0.0\nsamples = 4\nvalue = [0, 4, 0, 0, 0, 0, 0, 0, 0, 0, 0]"] ;
885 -> 891 ;
892 [label="gini = 0.0\nsamples = 11\nvalue = [0, 11, 0, 0, 0, 0, 0, 0, 0, 0, 0]"] ;
884 -> 892 ;
893 [label="x[0] <= 0.5\ngini = 0.723\nsamples = 1655\nvalue = [188, 112, 238, 796, 33, 99, 35, 9, 31, 36, 78]"] ;
1 -> 893 ;
894 [label="x[15] <= 0.5\ngini = 0.664\nsamples = 1373\nvalue = [111, 81, 222, 746, 32, 23, 30, 9, 27, 27, 65]"] ;
893 -> 894 ;
895 [label="x[10] <= 0.5\ngini = 0.645\nsamples = 1327\nvalue = [105, 46, 221, 745, 32, 21, 30, 9, 27, 27, 64]"] ;
894 -> 895 ;
896 [label="x[13] <= 0.5\ngini = 0.611\nsamples = 1216\nvalue = [81, 40, 209, 719, 8, 20, 25, 9, 25, 21, 59]"] ;
895 -> 896 ;
897 [label="x[3] <= 0.5\ngini = 0.662\nsamples = 870\nvalue = [65, 34, 176, 465, 7, 14, 20, 8, 22, 15, 44]"] ;
896 -> 897 ;
898 [label="x[11] <= 0.5\ngini = 0.629\nsamples = 750\nvalue = [48, 24, 157, 423, 3, 13, 20, 4, 6, 14, 38]"] ;
897 -> 898 ;
899 [label="x[1] <= 0.5\ngini = 0.619\nsamples = 739\nvalue = [47, 18, 156, 423, 3, 11, 20, 4, 6, 14, 37]"] ;
898 -> 899 ;
900 [label="x[4] <= 0.5\ngini = 0.594\nsamples = 663\nvalue = [40, 18, 149, 391, 3, 8, 4, 4, 5, 8, 33]"] ;
899 -> 900 ;
901 [label="x[9] <= 0.5\ngini = 0.558\nsamples = 580\nvalue = [30, 12, 133, 360, 3, 6, 3, 4, 3, 8, 18]"] ;
900 -> 901 ;
902 [label="x[20] <= 0.5\ngini = 0.545\nsamples = 568\nvalue = [27, 11, 132, 358, 3, 6, 2, 3, 3, 6, 17]"] ;
901 -> 902 ;
903 [label="x[14] <= 0.5\ngini = 0.54\nsamples = 565\nvalue = [27, 9, 132, 358, 3, 6, 2, 3, 3, 6, 16]"] ;
902 -> 903 ;
904 [label="x[8] <= 0.5\ngini = 0.535\nsamples = 561\nvalue = [26, 8, 131, 358, 2, 6, 2, 3, 3, 6, 16]"] ;
903 -> 904 ;
905 [label="x[12] <= 0.5\ngini = 0.527\nsamples = 552\nvalue = [25, 8, 128, 356, 2, 5, 2, 3, 3, 5, 15]"] ;
904 -> 905 ;
906 [label="gini = 0.525\nsamples = 551\nvalue = [25, 7, 128, 356, 2, 5, 2, 3, 3, 5, 15]"] ;
905 -> 906 ;
907 [label="gini = 0.0\nsamples = 1\nvalue = [0, 1, 0, 0, 0, 0, 0, 0, 0, 0, 0]"] ;
905 -> 907 ;
908 [label="x[21] <= 0.5\ngini = 0.79\nsamples = 9\nvalue = [1, 0, 3, 2, 0, 1, 0, 0, 0, 1, 1]"] ;
904 -> 908 ;
909 [label="gini = 0.75\nsamples = 8\nvalue = [1, 0, 3, 2, 0, 1, 0, 0, 0, 0, 1]"] ;
908 -> 909 ;
910 [label="gini = 0.0\nsamples = 1\nvalue = [0, 0, 0, 0, 0, 0, 0, 0, 0, 1, 0]"] ;
908 -> 910 ;
911 [label="gini = 0.75\nsamples = 4\nvalue = [1, 1, 1, 0, 1, 0, 0, 0, 0, 0, 0]"] ;
903 -> 911 ;
912 [label="x[7] <= 0.5\ngini = 0.444\nsamples = 3\nvalue = [0, 2, 0, 0, 0, 0, 0, 0, 0, 0, 1]"] ;
902 -> 912 ;
913 [label="gini = 0.5\nsamples = 2\nvalue = [0, 1, 0, 0, 0, 0, 0, 0, 0, 0, 1]"] ;
912 -> 913 ;
914 [label="gini = 0.0\nsamples = 1\nvalue = [0, 1, 0, 0, 0, 0, 0, 0, 0, 0, 0]"] ;
912 -> 914 ;
915 [label="x[19] <= 0.5\ngini = 0.847\nsamples = 12\nvalue = [3, 1, 1, 2, 0, 0, 1, 1, 0, 2, 1]"] ;
901 -> 915 ;
916 [label="x[20] <= 0.5\ngini = 0.826\nsamples = 11\nvalue = [3, 1, 1, 2, 0, 0, 1, 1, 0, 2, 0]"] ;
915 -> 916 ;
917 [label="x[8] <= 0.5\ngini = 0.82\nsamples = 10\nvalue = [3, 1, 1, 2, 0, 0, 1, 1, 0, 1, 0]"] ;
916 -> 917 ;
918 [label="x[7] <= 0.5\ngini = 0.778\nsamples = 6\nvalue = [1, 0, 1, 2, 0, 0, 1, 1, 0, 0, 0]"] ;
917 -> 918 ;
919 [label="gini = 0.625\nsamples = 4\nvalue = [0, 0, 1, 2, 0, 0, 1, 0, 0, 0, 0]"] ;
918 -> 919 ;
920 [label="gini = 0.5\nsamples = 2\nvalue = [1, 0, 0, 0, 0, 0, 0, 1, 0, 0, 0]"] ;
918 -> 920 ;
921 [label="gini = 0.625\nsamples = 4\nvalue = [2, 1, 0, 0, 0, 0, 0, 0, 0, 1, 0]"] ;
917 -> 921 ;
922 [label="gini = 0.0\nsamples = 1\nvalue = [0, 0, 0, 0, 0, 0, 0, 0, 0, 1, 0]"] ;
916 -> 922 ;
923 [label="gini = 0.0\nsamples = 1\nvalue = [0, 0, 0, 0, 0, 0, 0, 0, 0, 0, 1]"] ;
915 -> 923 ;
924 [label="x[22] <= 0.5\ngini = 0.77\nsamples = 83\nvalue = [10, 6, 16, 31, 0, 2, 1, 0, 2, 0, 15]"] ;
900 -> 924 ;
925 [label="x[8] <= 0.5\ngini = 0.762\nsamples = 79\nvalue = [9, 6, 16, 31, 0, 2, 1, 0, 2, 0, 12]"] ;
924 -> 925 ;
926 [label="x[6] <= 0.5\ngini = 0.773\nsamples = 74\nvalue = [9, 5, 16, 27, 0, 2, 1, 0, 2, 0, 12]"] ;
925 -> 926 ;
927 [label="x[14] <= 0.5\ngini = 0.759\nsamples = 69\nvalue = [7, 4, 15, 27, 0, 2, 1, 0, 2, 0, 11]"] ;
926 -> 927 ;
928 [label="x[9] <= 0.5\ngini = 0.753\nsamples = 68\nvalue = [7, 3, 15, 27, 0, 2, 1, 0, 2, 0, 11]"] ;
927 -> 928 ;
929 [label="gini = 0.747\nsamples = 65\nvalue = [7, 3, 15, 26, 0, 2, 0, 0, 2, 0, 10]"] ;
928 -> 929 ;
930 [label="gini = 0.667\nsamples = 3\nvalue = [0, 0, 0, 1, 0, 0, 1, 0, 0, 0, 1]"] ;
928 -> 930 ;
931 [label="gini = 0.0\nsamples = 1\nvalue = [0, 1, 0, 0, 0, 0, 0, 0, 0, 0, 0]"] ;
927 -> 931 ;
932 [label="x[14] <= 0.5\ngini = 0.72\nsamples = 5\nvalue = [2, 1, 1, 0, 0, 0, 0, 0, 0, 0, 1]"] ;
926 -> 932 ;
933 [label="gini = 0.75\nsamples = 4\nvalue = [1, 1, 1, 0, 0, 0, 0, 0, 0, 0, 1]"] ;
932 -> 933 ;
934 [label="gini = 0.0\nsamples = 1\nvalue = [1, 0, 0, 0, 0, 0, 0, 0, 0, 0, 0]"] ;
932 -> 934 ;
935 [label="x[7] <= 0.5\ngini = 0.32\nsamples = 5\nvalue = [0, 1, 0, 4, 0, 0, 0, 0, 0, 0, 0]"] ;
925 -> 935 ;
936 [label="gini = 0.0\nsamples = 3\nvalue = [0, 0, 0, 3, 0, 0, 0, 0, 0, 0, 0]"] ;
935 -> 936 ;
937 [label="x[6] <= 0.5\ngini = 0.5\nsamples = 2\nvalue = [0, 1, 0, 1, 0, 0, 0, 0, 0, 0, 0]"] ;
935 -> 937 ;
938 [label="gini = 0.0\nsamples = 1\nvalue = [0, 0, 0, 1, 0, 0, 0, 0, 0, 0, 0]"] ;
937 -> 938 ;
939 [label="gini = 0.0\nsamples = 1\nvalue = [0, 1, 0, 0, 0, 0, 0, 0, 0, 0, 0]"] ;
937 -> 939 ;
940 [label="gini = 0.375\nsamples = 4\nvalue = [1, 0, 0, 0, 0, 0, 0, 0, 0, 0, 3]"] ;
924 -> 940 ;
941 [label="x[17] <= 0.5\ngini = 0.751\nsamples = 76\nvalue = [7, 0, 7, 32, 0, 3, 16, 0, 1, 6, 4]"] ;
899 -> 941 ;
942 [label="x[22] <= 0.5\ngini = 0.738\nsamples = 73\nvalue = [7, 0, 7, 32, 0, 3, 15, 0, 1, 6, 2]"] ;
941 -> 942 ;
943 [label="x[8] <= 0.5\ngini = 0.726\nsamples = 71\nvalue = [6, 0, 7, 32, 0, 3, 15, 0, 1, 6, 1]"] ;
942 -> 943 ;
944 [label="x[6] <= 0.5\ngini = 0.706\nsamples = 65\nvalue = [5, 0, 7, 31, 0, 1, 13, 0, 1, 6, 1]"] ;
943 -> 944 ;
945 [label="x[9] <= 0.5\ngini = 0.719\nsamples = 52\nvalue = [4, 0, 7, 24, 0, 0, 9, 0, 1, 6, 1]"] ;
944 -> 945 ;
946 [label="x[4] <= 0.5\ngini = 0.704\nsamples = 44\nvalue = [3, 0, 7, 21, 0, 0, 8, 0, 1, 3, 1]"] ;
945 -> 946 ;
947 [label="gini = 0.679\nsamples = 39\nvalue = [3, 0, 5, 20, 0, 0, 7, 0, 1, 2, 1]"] ;
946 -> 947 ;
